booster[0]:
0:[Huis_leeftijd<9] yes=1,no=2,missing=2,gain=418.727051,cover=3582.58374
	1:[Aantal_Historische_Huurders_Vanaf_contractdatum<2] yes=3,no=4,missing=4,gain=88.4690247,cover=587.182556
		3:[Postcode_cijfers_ 6129 <1] yes=7,no=8,missing=8,gain=23.3652649,cover=454.814636
			7:[Mutatiegraad_x<7172] yes=15,no=16,missing=16,gain=24.1700287,cover=435.617157
				15:[3e Slaapkamer<4.34000015] yes=31,no=32,missing=32,gain=24.5383377,cover=382.883301
					31:[Keuken<9.09000015] yes=59,no=60,missing=60,gain=21.8701324,cover=249.448883
						59:[Huis_leeftijd<4] yes=97,no=98,missing=98,gain=17.8062897,cover=231.791931
							97:leaf=0.00996526238,cover=4.74012136
							98:leaf=-0.0081649553,cover=227.051819
						60:[Badkamer/doucheruimte 1<7.42999983] yes=99,no=100,missing=100,gain=10.1053543,cover=17.6569519
							99:leaf=0.00733264023,cover=14.2203636
							100:leaf=-0.00992399547,cover=3.43658805
					32:[WOZ waarde<151000] yes=61,no=62,missing=62,gain=20.1778259,cover=133.434418
						61:[Totaal kamers<66.6999969] yes=101,no=102,missing=102,gain=5.71791172,cover=28.7962379
							101:leaf=0.00902810693,cover=17.7754555
							102:leaf=-4.20746182e-05,cover=11.0207825
						62:[3e Slaapkamer<5.05999994] yes=103,no=104,missing=104,gain=18.4217873,cover=104.638176
							103:leaf=0.0100729764,cover=8.05820656
							104:leaf=-0.00488843024,cover=96.5799713
				16:[Totaal kamers<72.0899963] yes=33,no=34,missing=34,gain=27.9113541,cover=52.7338486
					33:[Postcode_cijfers_ 5801 <1] yes=63,no=64,missing=64,gain=5.54688263,cover=31.4033031
						63:[Energielabel_B<1] yes=105,no=106,missing=106,gain=6.42520142,cover=25.1226425
							105:leaf=-0.0221778154,cover=22.0415649
							106:leaf=-0.00485626888,cover=3.08107901
						64:leaf=-0.0079261465,cover=6.28066063
					34:[2e Slaapkamer<9.94999981] yes=65,no=66,missing=66,gain=10.8635302,cover=21.3305454
						65:[Totaal kamers<80.1100006] yes=107,no=108,missing=108,gain=0.526886702,cover=8.53221893
							107:leaf=0.00788341928,cover=3.31808496
							108:leaf=0.00240130024,cover=5.21413326
						66:[2e Slaapkamer<13.6999998] yes=109,no=110,missing=110,gain=5.20695686,cover=12.7983274
							109:leaf=-0.0161665883,cover=4.74012136
							110:leaf=-0.00317468005,cover=8.05820656
			8:[Badkamer/doucheruimte 1<4.28000021] yes=17,no=18,missing=18,gain=11.9898853,cover=19.1974907
				17:[WOZ waarde<9000] yes=35,no=36,missing=36,gain=0.119677544,cover=15.7609034
					35:leaf=0.00680011092,cover=11.2577887
					36:leaf=0.0115101589,cover=4.50311518
				18:leaf=-0.00992399547,cover=3.43658805
		4:[Zolder<16.4500008] yes=9,no=10,missing=10,gain=18.6995544,cover=132.367889
			9:[Bedrijfscode<4000] yes=19,no=20,missing=20,gain=12.6824341,cover=120.754593
				19:[Contractsoort_Regulier<1] yes=37,no=38,missing=38,gain=0.89755249,cover=28.9147396
					37:leaf=-0.0245766845,cover=18.4864731
					38:leaf=-0.0157640688,cover=10.4282665
				20:[Mutatiegraad_x<7097] yes=39,no=40,missing=40,gain=2.66822815,cover=91.8398514
					39:[Keuken<6.32000017] yes=67,no=68,missing=68,gain=3.44617844,cover=24.2931213
						67:[Huurklasse_klaliteitskorting Betaalbaar<1] yes=111,no=112,missing=112,gain=4.21495438,cover=19.9085102
							111:leaf=-0.0138763785,cover=16.1164131
							112:leaf=-0.00171919388,cover=3.79209709
						68:leaf=-0.00159497408,cover=4.38461208
					40:[WOZ waarde<214731.719] yes=69,no=70,missing=70,gain=4.32290649,cover=67.54673
						69:[Omschrijving_Vastgoed_Corridorflat<1] yes=113,no=114,missing=114,gain=3.78572083,cover=57.1184616
							113:leaf=-0.0173965767,cover=47.8752251
							114:leaf=-0.00873322133,cover=9.24323654
						70:[Postcode_cijfers_ 5801 <1] yes=115,no=116,missing=116,gain=2.74614477,cover=10.4282665
							115:leaf=-0.0111844772,cover=6.8731761
							116:leaf=-0.000460723037,cover=3.5550909
			10:[WOZ waarde<195919.984] yes=21,no=22,missing=22,gain=7.17491865,cover=11.6132975
				21:[Totaal kamers<73] yes=41,no=42,missing=42,gain=5.24475193,cover=8.29521275
					41:leaf=0.00854288414,cover=4.97712755
					42:leaf=-0.00601162901,cover=3.31808496
				22:leaf=-0.0129591534,cover=3.31808496
	2:[Aantal_Historische_Huurders_Vanaf_contractdatum<2] yes=5,no=6,missing=6,gain=165.969635,cover=2995.40112
		5:[WOZ waarde<86000] yes=11,no=12,missing=12,gain=117.422882,cover=2511.07935
			11:[Huis_leeftijd<31] yes=23,no=24,missing=24,gain=14.3480644,cover=434.076599
				23:[WOZ waarde<6000] yes=43,no=44,missing=44,gain=21.5291462,cover=156.661011
					43:[Mutatiegraad_x<702] yes=71,no=72,missing=72,gain=4.72967243,cover=37.5654602
						71:[Huis_leeftijd<20] yes=117,no=118,missing=118,gain=3.49469757,cover=28.9147396
							117:leaf=0.00143549696,cover=8.17670918
							118:leaf=-0.00608344143,cover=20.7380314
						72:leaf=-0.0123417387,cover=8.65072155
					44:[VABI_finished_year<2020] yes=73,no=74,missing=74,gain=23.1823254,cover=119.095551
						73:[Totaal kamers<60.4599991] yes=119,no=120,missing=120,gain=17.8456535,cover=19.078989
							119:leaf=-0.0145518314,cover=11.8503036
							120:leaf=0.0045855171,cover=7.2286849
						74:[Keuken<4.30000019] yes=121,no=122,missing=122,gain=12.070076,cover=100.016563
							121:leaf=0.00207638694,cover=71.2203217
							122:leaf=0.00969924685,cover=28.7962379
				24:[EP2_waarde<406.940002] yes=45,no=46,missing=46,gain=14.7694931,cover=277.415588
					45:[Mutatiegraad_x<297] yes=75,no=76,missing=76,gain=9.40800858,cover=266.394806
						75:[Mutatiegraad_x<94] yes=123,no=124,missing=124,gain=5.56654215,cover=49.1787605
							123:leaf=-0.00698174629,cover=8.29521275
							124:leaf=0.00157259102,cover=40.8835449
						76:[Energielabel_F<1] yes=125,no=126,missing=126,gain=9.88354492,cover=217.216064
							125:leaf=-0.00552123133,cover=196.004013
							126:leaf=0.00159724802,cover=21.2120438
					46:[Huis_leeftijd<49] yes=77,no=78,missing=78,gain=0.860981464,cover=11.0207825
						77:leaf=0.00382695929,cover=5.92515182
						78:leaf=0.0103339525,cover=5.09563065
			12:[Totaal kamers<50.8499985] yes=25,no=26,missing=26,gain=38.8076477,cover=2077.00269
				25:[Contractsoort_Regulier<1] yes=47,no=48,missing=48,gain=10.1822004,cover=393.785583
					47:[Totaal kamers<43.75] yes=79,no=80,missing=80,gain=11.2750959,cover=10.0727577
						79:leaf=0.0027166151,cover=4.62161827
						80:leaf=-0.01724004,cover=5.45113945
					48:[Postcode_cijfers_ 6004 <1] yes=81,no=82,missing=82,gain=7.20678663,cover=383.71283
						81:[WOZ waarde<130000] yes=127,no=128,missing=128,gain=8.61698627,cover=367.240906
							127:leaf=-0.000202005816,cover=263.195251
							128:leaf=0.00318509038,cover=104.045662
						82:[Wastafel/bidet/lavet/fontein 1<2] yes=129,no=130,missing=130,gain=7.42247391,cover=16.4719219
							129:leaf=0.010758182,cover=12.7983274
							130:leaf=-0.00431543449,cover=3.673594
				26:[WOZ waarde<126000] yes=49,no=50,missing=50,gain=17.2961121,cover=1683.21704
					49:[Mutatiegraad_x<761] yes=83,no=84,missing=84,gain=18.4460754,cover=547.247009
						83:[Keuken<4.53999996] yes=131,no=132,missing=132,gain=19.7501335,cover=290.569427
							131:leaf=-0.0111844772,cover=6.8731761
							132:leaf=0.00495450431,cover=283.696259
						84:[WOZ waarde<121000] yes=133,no=134,missing=134,gain=22.7645283,cover=256.677582
							133:leaf=0.00259195408,cover=191.5009
							134:leaf=-0.00420805393,cover=65.1766663
					50:[Huis_leeftijd<13] yes=85,no=86,missing=86,gain=18.4035339,cover=1135.97009
						85:[Totaal kamers<58.2000008] yes=135,no=136,missing=136,gain=20.2132454,cover=106.88974
							135:leaf=0.00699357037,cover=36.2619286
							136:leaf=-0.00208987109,cover=70.6278076
						86:[Huis_leeftijd<16] yes=137,no=138,missing=138,gain=15.3100586,cover=1029.08032
							137:leaf=0.00941430591,cover=87.2182312
							138:leaf=0.00501664169,cover=941.862122
		6:[Aantal_Historische_Huurders_Vanaf_contractdatum<4] yes=13,no=14,missing=14,gain=28.8359146,cover=484.321899
			13:[DAEB=1 niet-DAEB=2<2] yes=27,no=28,missing=28,gain=24.1195412,cover=438.579742
				27:[2e Slaapkamer<13.1400003] yes=51,no=52,missing=52,gain=10.6608238,cover=407.887451
					51:[Badkamer/doucheruimte 1<2.20000005] yes=87,no=88,missing=88,gain=8.81738853,cover=389.045471
						87:[WOZ waarde<113000] yes=139,no=140,missing=140,gain=5.15744638,cover=37.6839638
							139:leaf=0.00498977536,cover=21.6860561
							140:leaf=-0.00232051243,cover=15.9979095
						88:[Badkamer/doucheruimte 1<4.78000021] yes=141,no=142,missing=142,gain=5.87762833,cover=351.361511
							141:leaf=-0.00393314334,cover=255.492538
							142:leaf=-0.00101779983,cover=95.8689575
					52:[VABI_finished_year<2022] yes=89,no=90,missing=90,gain=3.31134033,cover=18.8419819
						89:[Energielabel_C<1] yes=143,no=144,missing=144,gain=1.46276057,cover=9.59874535
							143:leaf=-0.00213234127,cover=6.39916372
							144:leaf=0.00526510226,cover=3.19958186
						90:[EP2_waarde<158.240005] yes=145,no=146,missing=146,gain=1.2675209,cover=9.24323654
							145:leaf=0.0112204123,cover=6.16215801
							146:leaf=0.00249472819,cover=3.08107901
				28:[Postcode_cijfers_ 6131 <1] yes=53,no=54,missing=54,gain=4.6442337,cover=30.6922855
					53:[Postcode_cijfers_ 5801 <1] yes=91,no=92,missing=92,gain=2.96239471,cover=27.1371956
						91:[Huis_leeftijd<15] yes=147,no=148,missing=148,gain=1.06657791,cover=22.8710861
							147:leaf=-0.00601162901,cover=3.31808496
							148:leaf=-0.015158006,cover=19.5530014
						92:leaf=-0.00389630394,cover=4.26610947
					54:leaf=-0.000460723037,cover=3.5550909
			14:[Keuken<5.03999996] yes=29,no=30,missing=30,gain=9.37308884,cover=45.7421722
				29:[Huis_leeftijd<40] yes=55,no=56,missing=56,gain=1.06132889,cover=11.3762913
					55:leaf=-0.0225135703,cover=6.63616991
					56:leaf=-0.0109402174,cover=4.74012136
				30:[Aantal_Historische_Huurders_Vanaf_contractdatum<5] yes=57,no=58,missing=58,gain=10.4796963,cover=34.3658791
					57:[Totaal kamers<58.9399986] yes=93,no=94,missing=94,gain=6.88124657,cover=25.5966549
						93:[EP2_waarde<140.490005] yes=149,no=150,missing=150,gain=7.20616961,cover=17.4199467
							149:leaf=-0.00415491825,cover=13.9833584
							150:leaf=0.0103618633,cover=3.43658805
						94:[Wastafel/bidet/lavet/fontein 1<2] yes=151,no=152,missing=152,gain=4.08938789,cover=8.17670918
							151:leaf=-0.00187846599,cover=3.19958186
							152:leaf=-0.0165527817,cover=4.97712755
					58:[Mutatiegraad_x<761] yes=95,no=96,missing=96,gain=4.82110596,cover=8.76922417
						95:leaf=-0.0220326874,cover=5.68814564
						96:leaf=-0.00485626888,cover=3.08107901
booster[1]:
0:[Construction<2016] yes=1,no=2,missing=2,gain=405.535614,cover=3560.98901
	1:[WOZ waarde (WWS)<95000] yes=3,no=4,missing=4,gain=127.305725,cover=2971.23608
		3:[age_bucket_numeric<17] yes=7,no=8,missing=8,gain=37.9909592,cover=980.674805
			7:[Postcode_cijfers_ 6164 <1] yes=13,no=14,missing=14,gain=22.4193916,cover=638.047913
				13:[1e Slaapkamer flag<1] yes=25,no=26,missing=26,gain=22.2419319,cover=608.386841
					25:[Gebruiksoppervlak<104.129997] yes=49,no=50,missing=50,gain=16.8838196,cover=495.561707
						49:[Bergruimte/schuur 1<5.28000021] yes=87,no=88,missing=88,gain=14.7526894,cover=485.145935
							87:leaf=8.1351769e-05,cover=216.538116
							88:leaf=-0.00342326029,cover=268.607819
						50:[Zolder<23.5900002] yes=89,no=90,missing=90,gain=4.02473068,cover=10.4157648
							89:leaf=0.0142518962,cover=7.10278463
							90:leaf=0.000885446789,cover=3.31297994
					26:[Postcode_encoded<62] yes=51,no=52,missing=52,gain=19.5507584,cover=112.825127
						51:leaf=0.0106589198,cover=5.45052814
						52:[Gemeente_encoded<114] yes=91,no=92,missing=92,gain=7.90831375,cover=107.374596
							91:leaf=-0.00634646649,cover=95.0246658
							92:leaf=-0.0148416674,cover=12.3499336
				14:[age_bucket_numeric<8] yes=27,no=28,missing=28,gain=18.6924934,cover=29.6611137
					27:leaf=-0.0166527368,cover=19.8142052
					28:[Huurobject_x<83] yes=53,no=54,missing=54,gain=17.0393467,cover=9.84690952
						53:leaf=-0.016115278,cover=3.20309162
						54:[Huurobject_x<128] yes=93,no=94,missing=94,gain=0.963432312,cover=6.64381742
							93:leaf=0.00363661069,cover=3.4406116
							94:leaf=0.0124359913,cover=3.20320606
			8:[Gemeente_encoded<8] yes=15,no=16,missing=16,gain=16.0843582,cover=342.626831
				15:[Huurobject_x<20] yes=29,no=30,missing=30,gain=5.57578468,cover=9.01023674
					29:leaf=-0.0182659887,cover=4.38833952
					30:leaf=-0.00261761993,cover=4.62189722
				16:[Bergruimte/schuur 1<6.42999983] yes=31,no=32,missing=32,gain=10.0152235,cover=333.616608
					31:[Construction<1988] yes=55,no=56,missing=56,gain=10.4346304,cover=256.367981
						55:[Gemeente_encoded<101] yes=95,no=96,missing=96,gain=16.468565,cover=145.555878
							95:leaf=-0.00344185019,cover=99.1116714
							96:leaf=0.00371373235,cover=46.4441986
						56:[Postcode_encoded<483] yes=97,no=98,missing=98,gain=12.0204325,cover=110.812103
							97:leaf=-0.00408211071,cover=19.4356136
							98:leaf=0.00442284672,cover=91.3764954
					32:[Postcode_encoded<1505] yes=57,no=58,missing=58,gain=4.10233498,cover=77.2486267
						57:[Omschrijving_Vastgoed_Portiekflat<1] yes=99,no=100,missing=100,gain=5.55350924,cover=10.3059654
							99:leaf=0.00405116566,cover=6.87195635
							100:leaf=-0.00995513145,cover=3.43400884
						58:[Badkamer/doucheruimte 1<6.09000015] yes=101,no=102,missing=102,gain=2.40087318,cover=66.9426651
							101:leaf=0.00632877043,cover=57.92836
							102:leaf=0.000702952966,cover=9.01430321
		4:[Aparte douche/lavet+douche 1<1] yes=9,no=10,missing=10,gain=44.3245087,cover=1990.5614
			9:[Gemeente_encoded<73] yes=17,no=18,missing=18,gain=9.51950741,cover=124.267441
				17:[Huurobject_x<47] yes=33,no=34,missing=34,gain=11.2646914,cover=39.7922668
					33:[Construction<2012] yes=59,no=60,missing=60,gain=12.343236,cover=28.4240341
						59:[Bergruimte/schuur 1<8.25] yes=103,no=104,missing=104,gain=8.21710682,cover=24.7484493
							103:leaf=0.0108639169,cover=16.8154736
							104:leaf=-0.0012291976,cover=7.93297577
						60:leaf=-0.0107109519,cover=3.67558455
					34:[Bergruimte/schuur 1<7.19999981] yes=61,no=62,missing=62,gain=8.39196014,cover=11.3682356
						61:[Gemeente_encoded<24] yes=105,no=106,missing=106,gain=4.96555901,cover=7.57938337
							105:leaf=-0.001915014,cover=3.19620466
							106:leaf=-0.018325584,cover=4.38317871
						62:leaf=0.00451465696,cover=3.78885198
				18:[Postcode_encoded<1913] yes=35,no=36,missing=36,gain=14.0653152,cover=84.475174
					35:[Huurobject_x<27] yes=63,no=64,missing=64,gain=11.1281853,cover=69.3018799
						63:[Bergruimte/schuur 1<4.86999989] yes=107,no=108,missing=108,gain=7.82216835,cover=27.3628273
							107:leaf=0.00189528533,cover=6.39438295
							108:leaf=-0.0104088625,cover=20.9684429
						64:[Gemeente_encoded<113] yes=109,no=110,missing=110,gain=12.8121967,cover=41.9390564
							109:leaf=0.00437793089,cover=28.0828171
							110:leaf=-0.00703799166,cover=13.8562393
					36:[EP2_waarde<151.839996] yes=65,no=66,missing=66,gain=1.41544342,cover=15.1732903
						65:[Huurobject_x<18] yes=111,no=112,missing=112,gain=0.690214157,cover=12.0914259
							111:leaf=-0.0188871399,cover=4.86200809
							112:leaf=-0.0099926414,cover=7.22941828
						66:leaf=-0.00484665902,cover=3.08186388
			10:[age_bucket_numeric<23] yes=19,no=20,missing=20,gain=30.1317902,cover=1866.29395
				19:[Contractsoort_Short Stay<1] yes=37,no=38,missing=38,gain=23.3259659,cover=1424.13672
					37:[Eengezins_Meergezins_Meergezinswoning<1] yes=67,no=68,missing=68,gain=16.431427,cover=1419.7428
						67:[WOZ waarde (WWS)<148000] yes=113,no=114,missing=114,gain=22.5137482,cover=668.944946
							113:leaf=0.00477651926,cover=521.902893
							114:leaf=0.000344989327,cover=147.042084
						68:[Gemeente_encoded<95] yes=115,no=116,missing=116,gain=13.2451496,cover=750.797791
							115:leaf=-0.000349376816,cover=230.378174
							116:leaf=0.00252839224,cover=520.419617
					38:leaf=-0.0181996338,cover=4.39397669
				20:[WOZ waarde (WWS)<131000] yes=39,no=40,missing=40,gain=17.2342834,cover=442.157227
					39:[WOZ waarde (WWS)<101000] yes=69,no=70,missing=70,gain=13.8761559,cover=220.872345
						69:[Totaal overige ruimtes<4.0999999] yes=117,no=118,missing=118,gain=5.47200394,cover=23.452713
							117:leaf=0.000605566311,cover=4.50289917
							118:leaf=0.0129495813,cover=18.9498138
						70:[Bergruimte/schuur 1<9.35000038] yes=119,no=120,missing=120,gain=12.3250504,cover=197.419632
							119:leaf=0.00345130684,cover=180.482941
							120:leaf=-0.00526325312,cover=16.936697
					40:[Construction<2014] yes=71,no=72,missing=72,gain=6.98616791,cover=221.284866
						71:[Bruto vloeroppervlakte<68.8399963] yes=121,no=122,missing=122,gain=5.52697754,cover=211.211334
							121:leaf=0.0031410004,cover=23.0922394
							122:leaf=0.00850741845,cover=188.119095
						72:[Huurobject_x<22] yes=123,no=124,missing=124,gain=14.5870085,cover=10.0735312
							123:leaf=0.00937256031,cover=5.68937159
							124:leaf=-0.0127424709,cover=4.38415956
	2:[Contractsoort_Short Stay<1] yes=5,no=6,missing=6,gain=55.2042542,cover=589.75293
		5:[Gebruiksoppervlak<74.7799988] yes=11,no=12,missing=12,gain=23.9864502,cover=565.720337
			11:[Bedrijfscode<4000] yes=21,no=22,missing=22,gain=18.1519165,cover=216.467026
				21:[Postcode_cijfers_ 6136 <1] yes=41,no=42,missing=42,gain=24.4415665,cover=53.7709694
					41:[Omschrijving_Vastgoed_Tussenwoning<1] yes=73,no=74,missing=74,gain=8.31622314,cover=50.1057968
						73:[Postcode_cijfers_ 6001 <1] yes=125,no=126,missing=126,gain=6.76922607,cover=46.3141594
							125:leaf=-0.0190283898,cover=40.7334251
							126:leaf=-0.00589547865,cover=5.58073425
						74:leaf=-0.00172304851,cover=3.79163551
					42:leaf=0.00845965464,cover=3.66517138
				22:[Gebruiksoppervlak<22.9500008] yes=43,no=44,missing=44,gain=12.7446365,cover=162.69606
					43:[Bruto vloeroppervlakte<21.2000008] yes=75,no=76,missing=76,gain=16.7145615,cover=152.230484
						75:[Bergruimte/schuur 1<6.55999994] yes=127,no=128,missing=128,gain=14.3075256,cover=132.529297
							127:leaf=-0.0091193011,cover=124.109642
							128:leaf=0.003959917,cover=8.41964817
						76:[age_bucket_numeric<16] yes=129,no=130,missing=130,gain=6.49717617,cover=19.7011871
							129:leaf=-0.00571101764,cover=7.0013566
							130:leaf=0.00564984325,cover=12.6998301
					44:[Gebruiksoppervlak<68.0999985] yes=77,no=78,missing=78,gain=0.888290405,cover=10.4655809
						77:leaf=-0.0207354762,cover=7.25372076
						78:leaf=-0.00886524376,cover=3.21185994
			12:[Construction<2018] yes=23,no=24,missing=24,gain=39.1587372,cover=349.253326
				23:[Huurobject_x<19] yes=45,no=46,missing=46,gain=9.59795761,cover=28.2296715
					45:[WOZ waarde (WWS)<70000] yes=79,no=80,missing=80,gain=6.0170784,cover=20.1595364
						79:[age_bucket_numeric<8] yes=131,no=132,missing=132,gain=1.00621033,cover=15.412571
							131:leaf=0.00606993539,cover=4.50467777
							132:leaf=0.0140929352,cover=10.9078932
						80:leaf=-0.000433794252,cover=4.74696541
					46:[WOZ waarde (WWS)<102000] yes=81,no=82,missing=82,gain=11.1948318,cover=8.07013416
						81:leaf=-0.0126628214,cover=4.39169741
						82:leaf=0.00855979044,cover=3.67843699
				24:[Totaal overige ruimtes<3.5] yes=47,no=48,missing=48,gain=16.1789551,cover=321.023651
					47:[Huurobject_x<18] yes=83,no=84,missing=84,gain=8.09557915,cover=22.2117195
						83:leaf=0.0110355876,cover=5.82283449
						84:[Huurobject_x<29] yes=133,no=134,missing=134,gain=12.8460178,cover=16.3888855
							133:leaf=-0.0165652074,cover=3.44529676
							134:leaf=0.00298121362,cover=12.9435892
					48:[Postcode_encoded<171] yes=85,no=86,missing=86,gain=16.1574402,cover=298.811951
						85:[WOZ waarde (WWS)<190000] yes=135,no=136,missing=136,gain=5.69780731,cover=42.0161438
							135:leaf=-0.0166424923,cover=19.8176231
							136:leaf=-0.00850812439,cover=22.1985226
						86:[Postcode_encoded<551] yes=137,no=138,missing=138,gain=22.9084778,cover=256.795807
							137:leaf=-0.000533151382,cover=60.501297
							138:leaf=-0.00757630682,cover=196.294495
		6:leaf=-0.0222057626,cover=24.032589
booster[2]:
0:[Totaal_Aantal_Historische_Huurders<3] yes=1,no=2,missing=2,gain=576.320557,cover=3565.9187
	1:[Construction<2017] yes=3,no=4,missing=4,gain=253.013641,cover=3025.08643
		3:[Verhuurbaar vloeroppervlakte<66.3199997] yes=7,no=8,missing=8,gain=79.9077301,cover=2605.2959
			7:[Construction<2015] yes=15,no=16,missing=16,gain=30.8299198,cover=769.679138
				15:[Leegwaarde<74000] yes=31,no=32,missing=32,gain=24.2232151,cover=760.619141
					31:[Construction<2009] yes=57,no=58,missing=58,gain=11.0788975,cover=364.952667
						57:[Omschrijving_Vastgoed_Corridorflat<1] yes=101,no=102,missing=102,gain=13.6873894,cover=326.231659
							101:leaf=-0.00271112379,cover=274.661072
							102:leaf=0.0028635168,cover=51.5705948
						58:[Gemeente_encoded<83] yes=103,no=104,missing=104,gain=19.6250935,cover=38.7210045
							103:leaf=0.013053895,cover=13.4889698
							104:leaf=-0.00149771478,cover=25.2320347
					32:[Aparte douche/lavet+douche 1<1] yes=59,no=60,missing=60,gain=16.3528824,cover=395.666473
						59:[Leegwaarde<113000] yes=105,no=106,missing=106,gain=2.41296482,cover=26.9186478
							105:leaf=-0.00756788021,cover=15.1797848
							106:leaf=-0.00145951821,cover=11.738862
						60:[Totaal_Aantal_Historische_Huurders<2] yes=107,no=108,missing=108,gain=14.0918255,cover=368.747803
							107:leaf=0.003853434,cover=297.411133
							108:leaf=-0.00108084234,cover=71.3366699
				16:[Leegwaarde<100000] yes=33,no=34,missing=34,gain=3.2016716,cover=9.05997562
					33:leaf=-0.0215478111,cover=5.48421144
					34:leaf=-0.00681075919,cover=3.57576394
			8:[Leegwaarde<134000] yes=17,no=18,missing=18,gain=28.9509583,cover=1835.61682
				17:[Bergruimte/schuur 1<3.9000001] yes=35,no=36,missing=36,gain=16.1441956,cover=1089.44641
					35:[Totaal overige ruimtes<3.45000005] yes=61,no=62,missing=62,gain=6.97637939,cover=95.8747787
						61:[Construction<2010] yes=109,no=110,missing=110,gain=5.03757477,cover=31.3807125
							109:leaf=0.000228496661,cover=21.2025776
							110:leaf=0.00853584241,cover=10.178134
						62:[3e Slaapkamer<8.02999973] yes=111,no=112,missing=112,gain=4.81162643,cover=64.4940643
							111:leaf=0.0109046716,cover=43.1953354
							112:leaf=0.00475477939,cover=21.2987309
					36:[Bruto vloeroppervlakte<120.580002] yes=63,no=64,missing=64,gain=13.7573166,cover=993.571655
						63:[Bruto vloeroppervlakte<116.529999] yes=113,no=114,missing=114,gain=13.17519,cover=899.065918
							113:leaf=0.00262474641,cover=876.706116
							114:leaf=-0.0050016148,cover=22.3598118
						64:[Leegwaarde<125000] yes=115,no=116,missing=116,gain=6.50799179,cover=94.5057678
							115:leaf=0.00850241445,cover=57.9657326
							116:leaf=0.0030107412,cover=36.5400352
				18:[Leegwaarde<172000] yes=37,no=38,missing=38,gain=17.2546234,cover=746.170349
					37:[Zolder<7.82999992] yes=65,no=66,missing=66,gain=13.9413452,cover=655.643616
						65:[Gemeente_encoded<99] yes=117,no=118,missing=118,gain=9.39672852,cover=384.644836
							117:leaf=0.0059370324,cover=192.719894
							118:leaf=0.00914809015,cover=191.924957
						66:[Totaal overige ruimtes<14.8999996] yes=119,no=120,missing=120,gain=14.2019501,cover=270.998779
							119:leaf=-0.00754626328,cover=8.51463985
							120:leaf=0.00498013152,cover=262.484131
					38:[Bergruimte/schuur 1<5] yes=67,no=68,missing=68,gain=17.1841335,cover=90.5267639
						67:[Gemeente_encoded<111] yes=121,no=122,missing=122,gain=13.0748024,cover=38.9372826
							121:leaf=0.000597234524,cover=19.1832771
							122:leaf=0.012082357,cover=19.7540073
						68:[Mutatiegraad_y<1504] yes=123,no=124,missing=124,gain=16.6242657,cover=51.5894814
							123:leaf=-0.00475516636,cover=42.6103172
							124:leaf=0.00957160909,cover=8.97916412
		4:[Construction<2021] yes=9,no=10,missing=10,gain=17.0556793,cover=419.790466
			9:[Huurklasse_Sociale hogere huur<1] yes=19,no=20,missing=20,gain=15.3093719,cover=410.683533
				19:[Mutatiegraad_y<2085] yes=39,no=40,missing=40,gain=19.7922058,cover=248.663803
					39:[Verhuurbaar vloeroppervlakte<46.3300018] yes=69,no=70,missing=70,gain=24.7942123,cover=35.004818
						69:leaf=-0.0208122693,cover=20.6314564
						70:[Bergruimte/schuur 1<3.32999992] yes=125,no=126,missing=126,gain=4.45061398,cover=14.3733625
							125:leaf=0.00360302744,cover=4.98868942
							126:leaf=-0.00736644678,cover=9.38467312
					40:[Mutatiegraad_y<7172] yes=71,no=72,missing=72,gain=10.2559509,cover=213.658997
						71:[Omschrijving_Vastgoed_Parkeerplaats auto<1] yes=127,no=128,missing=128,gain=11.3355026,cover=173.450653
							127:leaf=-0.00374771771,cover=149.895172
							128:leaf=-0.0111480327,cover=23.5554867
						72:[Verwarmde vertrekken flag<1] yes=129,no=130,missing=130,gain=14.4438896,cover=40.2083397
							129:leaf=-0.0160903651,cover=20.7223434
							130:leaf=-0.00396131165,cover=19.4859962
				20:[Verhuurbaar vloeroppervlakte<82.8199997] yes=41,no=42,missing=42,gain=15.20082,cover=162.019714
					41:[Leegwaarde<162386] yes=73,no=74,missing=74,gain=11.163722,cover=40.2762871
						73:[Gemeente_encoded<112] yes=131,no=132,missing=132,gain=7.58135748,cover=18.4403019
							131:leaf=0.00231659738,cover=10.1102057
							132:leaf=-0.0100025591,cover=8.33009529
						74:[Leegwaarde<199939.594] yes=133,no=134,missing=134,gain=10.2830563,cover=21.8359871
							133:leaf=0.0100937504,cover=17.6781273
							134:leaf=-0.00620224746,cover=4.15786028
					42:[Zolder<16] yes=75,no=76,missing=76,gain=16.2050533,cover=121.743431
						75:[Mutatiegraad_y<7196] yes=135,no=136,missing=136,gain=7.12534714,cover=88.8640747
							135:leaf=-0.00785084162,cover=82.693573
							136:leaf=0.00289123412,cover=6.17049932
						76:[Zolder<18.2999992] yes=137,no=138,missing=138,gain=10.3871832,cover=32.8793564
							137:leaf=0.00966981612,cover=9.00813103
							138:leaf=-0.00240139244,cover=23.8712254
			10:[Aparte douche/lavet+douche 1<1] yes=21,no=22,missing=22,gain=2.02991676,cover=9.1069212
				21:leaf=0.0108492412,cover=5.78409147
				22:leaf=0.000983666163,cover=3.32283044
	2:[Totaal_Aantal_Historische_Huurders<4] yes=5,no=6,missing=6,gain=72.3847351,cover=540.832397
		5:[Verhuurbaar vloeroppervlakte<44.5299988] yes=11,no=12,missing=12,gain=23.7624741,cover=318.593445
			11:[Leegwaarde<63000] yes=23,no=24,missing=24,gain=4.94715881,cover=57.8186607
				23:[Huurklasse_klaliteitskorting Betaalbaar<1] yes=43,no=44,missing=44,gain=4.46728897,cover=49.7168541
					43:[Gemeente_encoded<114] yes=77,no=78,missing=78,gain=2.67942429,cover=33.9146347
						77:[Mutatiegraad_y<702] yes=139,no=140,missing=140,gain=2.04419708,cover=30.4633904
							139:leaf=-0.00731798401,cover=7.7192502
							140:leaf=-0.0150095122,cover=22.7441406
						78:leaf=-0.00300354837,cover=3.45124483
					44:[Mutatiegraad_y<729] yes=79,no=80,missing=80,gain=6.11101151,cover=15.8022175
						79:leaf=-0.0146728419,cover=4.03901052
						80:[Construction<1989] yes=141,no=142,missing=142,gain=2.62620401,cover=11.7632074
							141:leaf=0.00533269532,cover=3.20680976
							142:leaf=-0.00418080902,cover=8.55639744
				24:leaf=-0.0194210336,cover=8.10180664
			12:[Verhuurbaar vloeroppervlakte<84.2300034] yes=25,no=26,missing=26,gain=6.00556564,cover=260.774811
				25:[Energielabel_C<1] yes=45,no=46,missing=46,gain=4.72332954,cover=183.199158
					45:[Gebruiksoppervlak<52.9399986] yes=81,no=82,missing=82,gain=6.34675217,cover=150.239136
						81:[Gemeente_encoded<44] yes=143,no=144,missing=144,gain=5.8004303,cover=21.7144108
							143:leaf=0.00253111264,cover=3.08462453
							144:leaf=-0.0115068275,cover=18.6297874
						82:[Totaal overige ruimtes<4] yes=145,no=146,missing=146,gain=4.61146164,cover=128.524719
							145:leaf=-0.00913232379,cover=13.0261831
							146:leaf=-0.0029759449,cover=115.498543
					46:[Bergruimte/schuur 1<5.01999998] yes=83,no=84,missing=84,gain=3.89689541,cover=32.960022
						83:[Huurklasse_klaliteitskorting Betaalbaar<1] yes=147,no=148,missing=148,gain=1.44875586,cover=13.6347294
							147:leaf=0.00595601881,cover=8.30187702
							148:leaf=-0.000495361863,cover=5.33285284
						84:[Construction<1985] yes=149,no=150,missing=150,gain=2.88935232,cover=19.3252907
							149:leaf=-0.000904164219,cover=15.0581026
							150:leaf=-0.00958204642,cover=4.26718807
				26:[3e Slaapkamer<6.19999981] yes=47,no=48,missing=48,gain=9.15591049,cover=77.5756378
					47:[Leegwaarde<124000] yes=85,no=86,missing=86,gain=7.02528,cover=39.8822403
						85:leaf=-0.0184009485,cover=8.40956116
						86:[Postcode_cijfers_ 5961 <1] yes=151,no=152,missing=152,gain=2.55686188,cover=31.4726791
							151:leaf=-0.00894038845,cover=27.3199902
							152:leaf=-0.000430561806,cover=4.15268898
					48:[Bergruimte/schuur 1<4.55000019] yes=87,no=88,missing=88,gain=6.65975046,cover=37.6934013
						87:[Verhuurbaar vloeroppervlakte<112.150002] yes=153,no=154,missing=154,gain=2.27437305,cover=7.11613035
							153:leaf=-0.00429401128,cover=3.67562437
							154:leaf=-0.0166318193,cover=3.44050574
						88:[Totaal overige ruimtes<28.9599991] yes=155,no=156,missing=156,gain=3.83337545,cover=30.5772724
							155:leaf=-0.00273407483,cover=26.6650982
							156:leaf=0.00687338458,cover=3.91217375
		6:[Totaal_Aantal_Historische_Huurders<5] yes=13,no=14,missing=14,gain=17.5663757,cover=222.238968
			13:[Bergruimte/schuur 1<10.5] yes=27,no=28,missing=28,gain=12.1575775,cover=138.597733
				27:[Leegwaarde<159000] yes=49,no=50,missing=50,gain=6.89241028,cover=126.84549
					49:[Totaal overige ruimtes<19.7399998] yes=89,no=90,missing=90,gain=7.22250366,cover=107.239197
						89:[3e Slaapkamer<7.5] yes=157,no=158,missing=158,gain=5.42115784,cover=102.136108
							157:leaf=-0.0106421858,cover=94.068222
							158:leaf=-0.0196652245,cover=8.06788635
						90:leaf=0.000544998038,cover=5.10309029
					50:[Gebruiksoppervlak<113.790001] yes=91,no=92,missing=92,gain=2.15594482,cover=19.606287
						91:leaf=-0.0197110344,cover=15.806159
						92:leaf=-0.00789088849,cover=3.80012846
				28:[Mutatiegraad_y<297] yes=51,no=52,missing=52,gain=4.98782635,cover=11.7522402
					51:leaf=0.0060750721,cover=4.50539207
					52:[Bergruimte/schuur 1<13.3999996] yes=93,no=94,missing=94,gain=1.17826438,cover=7.24684811
						93:leaf=-0.00165404985,cover=3.79879093
						94:leaf=-0.0097831646,cover=3.44805741
			14:[Bergruimte/schuur 1<4.80000019] yes=29,no=30,missing=30,gain=1.80171204,cover=83.6412354
				29:[Mutatiegraad_y<7155] yes=53,no=54,missing=54,gain=2.07298279,cover=49.5442505
					53:[Omschrijving_Vastgoed_Parkeerplaats auto<1] yes=95,no=96,missing=96,gain=0.309936523,cover=42.6390877
						95:leaf=-0.0211458113,cover=35.6200523
						96:leaf=-0.0130811287,cover=7.01903582
					54:[Totaal_Aantal_Historische_Huurders<6] yes=97,no=98,missing=98,gain=0.851885796,cover=6.90516376
						97:leaf=-0.00469649816,cover=3.09422517
						98:leaf=-0.014007749,cover=3.8109386
				30:[Bergruimte/schuur 1<5.46000004] yes=55,no=56,missing=56,gain=3.91326141,cover=34.0969849
					55:leaf=-0.00311457179,cover=3.44102049
					56:[Construction<1986] yes=99,no=100,missing=100,gain=3.39360809,cover=30.6559639
						99:[Totaal overige ruimtes<6.9000001] yes=159,no=160,missing=160,gain=6.16018677,cover=17.3384609
							159:leaf=-0.000440377946,cover=4.15157461
							160:leaf=-0.014398478,cover=13.1868858
						100:leaf=-0.0196828209,cover=13.317503
booster[3]:
0:[Huurdersomloopsnelheid<0.0930232555] yes=1,no=2,missing=2,gain=508.483856,cover=3579.27954
	1:[WOZ waarde<86000] yes=3,no=4,missing=4,gain=127.420212,cover=2722.01587
		3:[age_bucket_numeric<17] yes=7,no=8,missing=8,gain=36.6604233,cover=522.835327
			7:[Bergruimte/schuur 1<4.48000002] yes=15,no=16,missing=16,gain=15.0240135,cover=354.498322
				15:[Mutatiegraad_x<645] yes=29,no=30,missing=30,gain=8.29201508,cover=153.613495
					29:[Huurdersomloopsnelheid<0.0465116277] yes=57,no=58,missing=58,gain=6.71879196,cover=72.0119705
						57:[Huurklasse_klaliteitskorting Betaalbaar<1] yes=103,no=104,missing=104,gain=5.73696518,cover=50.8433571
							103:leaf=-0.00833219569,cover=40.980423
							104:leaf=0.00013016336,cover=9.86293125
						58:[Aantal_Historische_Huurders_Vanaf_contractdatum<3] yes=105,no=106,missing=106,gain=4.65032959,cover=21.1686172
							105:leaf=-0.0162378922,cover=16.0540638
							106:leaf=-0.00427727401,cover=5.11455393
					30:[Huurdersomloopsnelheid<0.024390243] yes=59,no=60,missing=60,gain=9.3802948,cover=81.6015167
						59:[age_bucket_numeric<6] yes=107,no=108,missing=108,gain=2.17959809,cover=7.96384764
							107:leaf=-0.000349239388,cover=3.56640697
							108:leaf=0.00963100325,cover=4.39744091
						60:[Postcode_encoded<1919] yes=109,no=110,missing=110,gain=6.53649902,cover=73.6376724
							109:leaf=-0.00782992598,cover=42.2772598
							110:leaf=-0.00176342111,cover=31.3604126
				16:[Huurdersomloopsnelheid<0.073170729] yes=31,no=32,missing=32,gain=11.122736,cover=200.884842
					31:[WOZ waarde<63000] yes=61,no=62,missing=62,gain=8.1781683,cover=177.61264
						61:[Verwarmde overige ruimten<2] yes=111,no=112,missing=112,gain=10.1392736,cover=26.006073
							111:leaf=-0.00928438269,cover=21.4906311
							112:leaf=0.00614449196,cover=4.51544237
						62:[Contract_duur_vorige_huurder_encoded<1] yes=113,no=114,missing=114,gain=9.91439152,cover=151.606567
							113:leaf=0.000320946507,cover=138.194534
							114:leaf=-0.00839307066,cover=13.4120436
					32:[Gebruiksoppervlak<46.1599998] yes=63,no=64,missing=64,gain=12.988184,cover=23.272192
						63:leaf=0.00791710988,cover=3.32192588
						64:[Postcode_encoded<2038] yes=115,no=116,missing=116,gain=6.30151558,cover=19.9502659
							115:leaf=-0.00559730688,cover=10.6850872
							116:leaf=-0.0173864234,cover=9.26517868
			8:[Gebruiksoppervlak<69.6900024] yes=17,no=18,missing=18,gain=13.3499155,cover=168.33699
				17:[Contract_duur_vorige_huurder_encoded<1] yes=33,no=34,missing=34,gain=8.99427509,cover=152.209778
					33:[WOZ waarde<8001] yes=65,no=66,missing=66,gain=8.05547714,cover=145.082626
						65:[WOZ waarde<7000] yes=117,no=118,missing=118,gain=8.06709671,cover=19.1023197
							117:leaf=0.00060986646,cover=15.3085432
							118:leaf=-0.0142193204,cover=3.79377651
						66:[Leegwaarde<79000] yes=119,no=120,missing=120,gain=7.3671875,cover=125.980301
							119:leaf=0.00516982283,cover=100.26754
							120:leaf=-0.000795803207,cover=25.7127666
					34:[Postcode_encoded<1944] yes=67,no=68,missing=68,gain=2.30183601,cover=7.12715769
						67:leaf=-0.00164928881,cover=3.79933834
						68:leaf=-0.0128291082,cover=3.32781959
				18:[Keuken<6.73999977] yes=35,no=36,missing=36,gain=13.1703281,cover=16.127203
					35:leaf=-0.0130816083,cover=10.4397049
					36:leaf=0.00487726089,cover=5.68749809
		4:[Aantal_Historische_Huurders_Vanaf_contractdatum<2] yes=9,no=10,missing=10,gain=63.5661163,cover=2199.18066
			9:[WOZ waarde<143000] yes=19,no=20,missing=20,gain=36.2102661,cover=1958.39209
				19:[Keuken<13.6000004] yes=37,no=38,missing=38,gain=12.4583893,cover=1259.84143
					37:[Mutatiegraad_x<280] yes=69,no=70,missing=70,gain=13.4465179,cover=1230.31287
						69:[Huurdersomloopsnelheid<0.0227272734] yes=121,no=122,missing=122,gain=10.7437401,cover=157.809677
							121:leaf=0.00632828102,cover=138.171661
							122:leaf=-0.00150501193,cover=19.6380215
						70:[Omschrijving_Vastgoed_Portiekflat<1] yes=123,no=124,missing=124,gain=11.8294525,cover=1072.50317
							123:leaf=0.00265027676,cover=920.876099
							124:leaf=-0.000361617276,cover=151.627106
					38:[Huurdersomloopsnelheid<0.0238095243] yes=71,no=72,missing=72,gain=8.06809807,cover=29.5284882
						71:[EP2_waarde<155.089996] yes=125,no=126,missing=126,gain=8.73739243,cover=26.4549065
							125:leaf=0.0130186947,cover=23.0249863
							126:leaf=-0.00323210587,cover=3.42991924
						72:leaf=-0.00494479388,cover=3.07358241
				20:[WOZ waarde<184000] yes=39,no=40,missing=40,gain=12.1287231,cover=698.55072
					39:[WOZ waarde<163000] yes=73,no=74,missing=74,gain=22.8847198,cover=596.757568
						73:[Huurdersomloopsnelheid<0.0799999982] yes=127,no=128,missing=128,gain=5.7975769,cover=432.727112
							127:leaf=0.00648085354,cover=419.356506
							128:leaf=-0.00019367678,cover=13.3706217
						74:[WOZ waarde<166000] yes=129,no=130,missing=130,gain=8.88335419,cover=164.030457
							129:leaf=-0.00314883306,cover=28.244278
							130:leaf=0.00293522282,cover=135.786179
					40:[WOZ waarde<214731.719] yes=75,no=76,missing=76,gain=10.2688065,cover=101.793167
						75:[age_bucket_numeric<23] yes=131,no=132,missing=132,gain=7.98882294,cover=88.2954254
							131:leaf=0.00670198305,cover=42.7750511
							132:leaf=0.0130159194,cover=45.5203743
						76:[Verwarmde overige ruimten<1] yes=133,no=134,missing=134,gain=8.86710835,cover=13.4977446
							133:leaf=-0.00596781587,cover=7.82055807
							134:leaf=0.00931063853,cover=5.67718697
			10:[Huurdersomloopsnelheid<0.0599999987] yes=21,no=22,missing=22,gain=24.4334126,cover=240.788467
				21:[Leegwaarde<82000] yes=41,no=42,missing=42,gain=9.83532619,cover=150.260208
					41:[Contract_duur_vorige_huurder_encoded<1] yes=77,no=78,missing=78,gain=5.77118587,cover=22.075037
						77:[Leegwaarde<77000] yes=135,no=136,missing=136,gain=2.32588935,cover=11.0422735
							135:leaf=0.0030078243,cover=7.72006989
							136:leaf=-0.00596356718,cover=3.3222034
						78:[Bergruimte/schuur 1<3.95000005] yes=137,no=138,missing=138,gain=2.4398365,cover=11.0327644
							137:leaf=-0.00184766448,cover=3.20239305
							138:leaf=-0.0127068544,cover=7.8303709
					42:[Postcode_encoded<1079] yes=79,no=80,missing=80,gain=6.68049335,cover=128.185165
						79:[Mutatiegraad_x<961] yes=139,no=140,missing=140,gain=5.63127232,cover=53.411602
							139:leaf=0.00289420481,cover=43.5804939
							140:leaf=0.0110785542,cover=9.83110905
						80:[Eengezins_Meergezins_Meergezinswoning<1] yes=141,no=142,missing=142,gain=6.17132902,cover=74.7735596
							141:leaf=0.00515385624,cover=16.686245
							142:leaf=-0.00157948316,cover=58.0873184
				22:[WOZ waarde<149000] yes=43,no=44,missing=44,gain=15.4884548,cover=90.5282669
					43:[Wastafel/bidet/lavet/fontein 1<3] yes=81,no=82,missing=82,gain=10.0501289,cover=77.7325974
						81:[Bergruimte/schuur 1<6.71999979] yes=143,no=144,missing=144,gain=11.7327881,cover=73.8133545
							143:leaf=-0.00496735843,cover=46.2713966
							144:leaf=-0.0133143459,cover=27.5419579
						82:leaf=0.00692696357,cover=3.91924214
					44:[Huurdersomloopsnelheid<0.075000003] yes=83,no=84,missing=84,gain=5.80659389,cover=12.7956762
						83:[Leegwaarde<146000] yes=145,no=146,missing=146,gain=3.13770962,cover=9.47195339
							145:leaf=0.0122551378,cover=5.56307364
							146:leaf=0.00073704659,cover=3.90888023
						84:leaf=-0.00594506785,cover=3.32372236
	2:[Contract_duur_vorige_huurder_n.v.t.<1] yes=5,no=6,missing=6,gain=99.624115,cover=857.263489
		5:[Huurdersomloopsnelheid<0.357142866] yes=11,no=12,missing=12,gain=48.6340942,cover=291.538239
			11:[Mutatiegraad_x<1027] yes=23,no=24,missing=24,gain=23.9156799,cover=179.723038
				23:[Postcode_encoded<97] yes=45,no=46,missing=46,gain=5.26416779,cover=74.0356064
					45:leaf=-0.00147915154,cover=4.39807272
					46:[Mutatiegraad_x<446] yes=85,no=86,missing=86,gain=3.02236176,cover=69.6375351
						85:leaf=-0.0195651259,cover=8.34193134
						86:[Mutatiegraad_x<754] yes=147,no=148,missing=148,gain=6.36834717,cover=61.2956009
							147:leaf=-0.00860705785,cover=34.0349922
							148:leaf=-0.0156558603,cover=27.2606068
				24:[Leegwaarde<133000] yes=47,no=48,missing=48,gain=10.9943027,cover=105.687424
					47:[age_bucket_numeric<3] yes=87,no=88,missing=88,gain=11.7463951,cover=49.7975159
						87:leaf=0.00692401221,cover=3.91872573
						88:[WOZ waarde<135000] yes=149,no=150,missing=150,gain=7.38831711,cover=45.8787918
							149:leaf=-0.0129178166,cover=28.2029972
							150:leaf=-0.0043682754,cover=17.6757946
					48:[Huurdersomloopsnelheid<0.210526317] yes=89,no=90,missing=90,gain=17.2329903,cover=55.8899117
						89:[Contract_duur_vorige_huurder_encoded<1] yes=151,no=152,missing=152,gain=4.65578365,cover=22.8436184
							151:leaf=0.00876074098,cover=11.8375998
							152:leaf=-9.46638975e-05,cover=11.0060186
						90:[Omschrijving_Vastgoed_Portiekflat<1] yes=153,no=154,missing=154,gain=9.55664539,cover=33.0462914
							153:leaf=-0.00839880947,cover=29.1249657
							154:leaf=0.00694393506,cover=3.92132568
			12:[age_bucket_numeric<26] yes=25,no=26,missing=26,gain=12.3890686,cover=111.815216
				25:[Mutatiegraad_x<7081] yes=49,no=50,missing=50,gain=6.17498779,cover=89.9720306
					49:[Mutatiegraad_x<1391] yes=91,no=92,missing=92,gain=2.15975952,cover=33.1541328
						91:leaf=-0.0122610368,cover=5.48771
						92:leaf=-0.0237406678,cover=27.6664238
					50:[Mutatiegraad_x<7097] yes=93,no=94,missing=94,gain=4.03210449,cover=56.8179016
						93:leaf=-0.00411785766,cover=3.69224477
						94:[Zolder flag<1] yes=155,no=156,missing=156,gain=1.96359253,cover=53.1256561
							155:leaf=-0.00954169687,cover=8.10055065
							156:leaf=-0.0173041001,cover=45.0251045
				26:[Keuken<8.02000046] yes=51,no=52,missing=52,gain=7.83841515,cover=21.8431797
					51:[Postcode_encoded<159] yes=95,no=96,missing=96,gain=9.57338715,cover=18.388382
						95:leaf=0.0008572808,cover=4.53396511
						96:[WOZ waarde<25452] yes=157,no=158,missing=158,gain=1.00561905,cover=13.8544168
							157:leaf=-0.0196314082,cover=6.09398699
							158:leaf=-0.0104911532,cover=7.76043034
					52:leaf=0.00376998633,cover=3.45479703
		6:[Contractsoort_Short Stay<1] yes=13,no=14,missing=14,gain=25.8136597,cover=565.725281
			13:[Mutatiegraad_x<693] yes=27,no=28,missing=28,gain=20.7441025,cover=557.462524
				27:[Huurdersomloopsnelheid<0.113636367] yes=53,no=54,missing=54,gain=4.25740051,cover=17.3759365
					53:leaf=-0.0216718614,cover=5.47220516
					54:[age_bucket_numeric<8] yes=97,no=98,missing=98,gain=6.81116199,cover=11.9037304
						97:leaf=0.00255706999,cover=3.08709049
						98:[Huurdersomloopsnelheid<0.200000003] yes=159,no=160,missing=160,gain=3.01373482,cover=8.8166399
							159:leaf=-0.00524362829,cover=3.92162657
							160:leaf=-0.0185233131,cover=4.89501286
				28:[Huurdersomloopsnelheid<0.161290318] yes=55,no=56,missing=56,gain=22.2694092,cover=540.086609
					55:[WOZ waarde<116000] yes=99,no=100,missing=100,gain=16.600996,cover=119.737083
						99:[3e Slaapkamer<4] yes=161,no=162,missing=162,gain=7.64673138,cover=36.7901268
							161:leaf=-0.00685059605,cover=32.894165
							162:leaf=0.00675338274,cover=3.895962
						100:[Huurdersomloopsnelheid<0.103448279] yes=163,no=164,missing=164,gain=19.7639313,cover=82.9469528
							163:leaf=-0.00568770571,cover=20.243763
							164:leaf=0.00547094131,cover=62.7031898
					56:[Postcode_encoded<1903] yes=101,no=102,missing=102,gain=14.8233109,cover=420.349487
						101:[Postcode_encoded<1640] yes=165,no=166,missing=166,gain=25.2409897,cover=376.202667
							165:leaf=-0.00483953068,cover=339.272064
							166:leaf=0.00378758484,cover=36.9306107
						102:[Huurdersomloopsnelheid<0.3125] yes=167,no=168,missing=168,gain=14.249939,cover=44.1468353
							167:leaf=-0.0131776249,cover=33.6847305
							168:leaf=0.000125471139,cover=10.4621048
			14:leaf=-0.0208197273,cover=8.26274395
booster[4]:
0:[Huurdersomloopsnelheid<0.095238097] yes=1,no=2,missing=2,gain=506.097809,cover=3537.71948
	1:[Leegwaarde<90000] yes=3,no=4,missing=4,gain=92.8517303,cover=2688.72119
		3:[complexnummer<693] yes=7,no=8,missing=8,gain=31.264473,cover=807.092896
			7:[Huurdersomloopsnelheid<0.0571428575] yes=15,no=16,missing=16,gain=41.4306831,cover=430.2435
				15:[Huurdersomloopsnelheid<0.0416666679] yes=31,no=32,missing=32,gain=10.8913584,cover=350.049988
					31:[WOZ waarde (WWS)<72000] yes=59,no=60,missing=60,gain=13.5870113,cover=314.436401
						59:[complexnummer<386] yes=111,no=112,missing=112,gain=17.2773972,cover=123.152725
							111:leaf=0.00108943786,cover=44.0317421
							112:leaf=-0.00668616267,cover=79.1209793
						60:[Leegwaarde<80000] yes=113,no=114,missing=114,gain=14.5226011,cover=191.283691
							113:leaf=0.00262848823,cover=112.295921
							114:leaf=-0.00293717277,cover=78.9877625
					32:[1e Slaapkamer<8.27999973] yes=61,no=62,missing=62,gain=8.6116457,cover=35.6135902
						61:[Huurobject_x<47] yes=115,no=116,missing=116,gain=5.93979788,cover=12.2334957
							115:leaf=-0.0072543011,cover=7.72976637
							116:leaf=0.00606392138,cover=4.50372934
						62:[complexnummer<588] yes=117,no=118,missing=118,gain=2.11987686,cover=23.3800945
							117:leaf=0.00494120549,cover=14.4803095
							118:leaf=0.0116457921,cover=8.89978504
				16:[Huurdersomloopsnelheid<0.0808080807] yes=33,no=34,missing=34,gain=8.30271149,cover=80.1934891
					33:[1e Slaapkamer<11.8900003] yes=63,no=64,missing=64,gain=4.937397,cover=62.3276863
						63:[Leegwaarde<64000] yes=119,no=120,missing=120,gain=4.20053768,cover=26.275692
							119:leaf=-0.00622166879,cover=16.5304108
							120:leaf=0.00181662093,cover=9.74528122
						64:[Contract_duur_vorige_huurder_>3<1] yes=121,no=122,missing=122,gain=4.32631302,cover=36.0519943
							121:leaf=-0.00723469164,cover=30.5774612
							122:leaf=-0.0170151629,cover=5.47453117
					34:[complexnummer<280] yes=65,no=66,missing=66,gain=6.43313217,cover=17.8658028
						65:leaf=-0.00413922127,cover=5.13136339
						66:[complexnummer<603] yes=123,no=124,missing=124,gain=5.47958374,cover=12.7344398
							123:leaf=-0.0217710659,cover=9.64217663
							124:leaf=-0.00472039497,cover=3.09226298
			8:[1e Slaapkamer<12] yes=17,no=18,missing=18,gain=18.6533928,cover=376.849396
				17:[Contractsoort_Koppelcontract<1] yes=35,no=36,missing=36,gain=17.2972031,cover=222.07663
					35:[Huurobject_x<56] yes=67,no=68,missing=68,gain=12.3509655,cover=200.28688
						67:[Bergruimte/schuur 1<6.92999983] yes=125,no=126,missing=126,gain=17.3019447,cover=159.775253
							125:leaf=0.00142879214,cover=139.761795
							126:leaf=-0.00829903316,cover=20.0134621
						68:[Huurdersomloopsnelheid<0.0563380271] yes=127,no=128,missing=128,gain=8.42317104,cover=40.5116158
							127:leaf=-0.008888321,cover=28.1602612
							128:leaf=0.000897155842,cover=12.3513546
					36:[Huurobject_x<101] yes=69,no=70,missing=70,gain=9.64470482,cover=21.7897606
						69:[Huurobject_x<39] yes=129,no=130,missing=130,gain=0.28021431,cover=14.4303761
							129:leaf=0.00679332111,cover=3.90128326
							130:leaf=0.0139663182,cover=10.5290918
						70:[Huurobject_x<157] yes=131,no=132,missing=132,gain=3.08045268,cover=7.35938501
							131:leaf=-0.00623865938,cover=4.15418816
							132:leaf=0.00531767355,cover=3.2051971
				18:[Huurdersomloopsnelheid<0.0625] yes=37,no=38,missing=38,gain=8.16141319,cover=154.772751
					37:[EP2_waarde<83.8600006] yes=71,no=72,missing=72,gain=9.70051575,cover=128.408859
						71:[Energielabel_encoded<1] yes=133,no=134,missing=134,gain=11.3445578,cover=47.6250534
							133:leaf=0.00619978411,cover=25.4564533
							134:leaf=-0.00339655043,cover=22.1686001
						72:[Verhuurbaar vloeroppervlakte<76.6600037] yes=135,no=136,missing=136,gain=7.89459991,cover=80.7838135
							135:leaf=0.00847292598,cover=73.2176743
							136:leaf=-0.00201474642,cover=7.56613922
					38:[Verhuurbaar vloeroppervlakte<66.7900009] yes=73,no=74,missing=74,gain=3.09627652,cover=26.3638935
						73:[Postcode_encoded<2038] yes=137,no=138,missing=138,gain=3.73650908,cover=16.7394257
							137:leaf=0.00561226346,cover=9.85146141
							138:leaf=-0.00347301806,cover=6.88796568
						74:[Bergruimte/schuur 1<6.19999981] yes=139,no=140,missing=140,gain=1.08065104,cover=9.6244669
							139:leaf=-0.00035318188,cover=3.5659771
							140:leaf=-0.0072110584,cover=6.0584898
		4:[Leegwaarde<134000] yes=9,no=10,missing=10,gain=27.9113922,cover=1881.62842
			9:[Huurdersomloopsnelheid<0.0740740746] yes=19,no=20,missing=20,gain=32.9378815,cover=1178.64026
				19:[Verhuurbaar vloeroppervlakte<96.6100006] yes=39,no=40,missing=40,gain=21.4610062,cover=1118.1311
					39:[Postcode_encoded<1017] yes=75,no=76,missing=76,gain=20.5084915,cover=926.498291
						75:[3e Slaapkamer<8.17000008] yes=141,no=142,missing=142,gain=9.21741486,cover=339.90152
							141:leaf=0.0051432834,cover=283.853516
							142:leaf=0.000693361566,cover=56.048027
						76:[Huurobject_x<14] yes=143,no=144,missing=144,gain=15.5070152,cover=586.596741
							143:leaf=0.00312123192,cover=263.530609
							144:leaf=-0.000143622936,cover=323.066132
					40:[Aparte douche/lavet+douche 1<1] yes=77,no=78,missing=78,gain=11.1648941,cover=191.632843
						77:leaf=-0.00730735203,cover=5.20752048
						78:[complexnummer<1131] yes=145,no=146,missing=146,gain=9.02163696,cover=186.425323
							145:leaf=0.00709405774,cover=175.666397
							146:leaf=-0.00216338341,cover=10.7589254
				20:[Totaal overige ruimtes<5.48999977] yes=41,no=42,missing=42,gain=10.916935,cover=60.5091362
					41:[Leegwaarde<104000] yes=79,no=80,missing=80,gain=3.99893761,cover=18.8275318
						79:[Huurobject_x<16] yes=147,no=148,missing=148,gain=3.25948906,cover=8.05676746
							147:leaf=0.000585860515,cover=4.5002923
							148:leaf=0.0127222473,cover=3.55647492
						80:[Bergruimte/schuur 1<3.01999998] yes=149,no=150,missing=150,gain=6.30894566,cover=10.7707644
							149:leaf=-0.0122470278,cover=3.0781467
							150:leaf=0.00287807151,cover=7.69261789
					42:[EP2_waarde<166.039993] yes=81,no=82,missing=82,gain=6.18599129,cover=41.6816063
						81:[EP2_waarde<103.959999] yes=151,no=152,missing=152,gain=5.67700195,cover=37.5175629
							151:leaf=-0.00824944582,cover=25.2862968
							152:leaf=-2.39085011e-06,cover=12.231266
						82:leaf=-0.0177577343,cover=4.16404295
			10:[Totaal overige ruimtes<17.3799992] yes=21,no=22,missing=22,gain=21.0043488,cover=702.98822
				21:[Aparte douche/lavet+douche 1<1] yes=43,no=44,missing=44,gain=20.925415,cover=411.015259
					43:[VABI_finished_year<2019] yes=83,no=84,missing=84,gain=8.51912117,cover=17.1507397
						83:[1e Slaapkamer<15] yes=153,no=154,missing=154,gain=1.47963428,cover=7.11520433
							153:leaf=-0.0161665268,cover=3.19943976
							154:leaf=-0.00530243665,cover=3.91576457
						84:[2e Slaapkamer<6.3499999] yes=155,no=156,missing=156,gain=5.89738989,cover=10.0355358
							155:leaf=-0.00714749377,cover=3.54594779
							156:leaf=0.0073374128,cover=6.48958778
					44:[WOZ waarde (WWS)<102000] yes=85,no=86,missing=86,gain=11.1139832,cover=393.864502
						85:leaf=-0.00606203126,cover=5.55874538
						86:[Postcode_encoded<1089] yes=157,no=158,missing=158,gain=10.914566,cover=388.305756
							157:leaf=0.0060764784,cover=251.205261
							158:leaf=0.00965935364,cover=137.10051
				22:[Huurdersomloopsnelheid<0.0350877196] yes=45,no=46,missing=46,gain=14.8480415,cover=291.972931
					45:[1e Slaapkamer<19] yes=87,no=88,missing=88,gain=10.9212456,cover=229.290482
						87:[WOZ waarde (WWS)<151000] yes=159,no=160,missing=160,gain=8.92546082,cover=225.638031
							159:leaf=0.00605379744,cover=148.976898
							160:leaf=0.00182750076,cover=76.6611328
						88:leaf=-0.010977596,cover=3.65244985
					46:[Totaal overige ruimtes<36.0999985] yes=89,no=90,missing=90,gain=9.91041374,cover=62.6824532
						89:[Leegwaarde<137000] yes=161,no=162,missing=162,gain=5.17730141,cover=52.6347008
							161:leaf=0.00486767897,cover=6.6123004
							162:leaf=-0.00409223279,cover=46.0223999
						90:[2e Slaapkamer<7.61000013] yes=163,no=164,missing=164,gain=5.46245241,cover=10.0477543
							163:leaf=0.0126051521,cover=6.26355362
							164:leaf=-0.00179330027,cover=3.78420067
	2:[Huurdersomloopsnelheid<0.538461566] yes=5,no=6,missing=6,gain=108.256805,cover=848.998291
		5:[Leegwaarde<119000] yes=11,no=12,missing=12,gain=58.6752014,cover=754.949219
			11:[Totaal overige ruimtes<4.30000019] yes=23,no=24,missing=24,gain=22.3607178,cover=305.311981
				23:[Huurdersomloopsnelheid<0.172413796] yes=47,no=48,missing=48,gain=23.4015503,cover=223.343414
					47:[complexnummer<7176] yes=91,no=92,missing=92,gain=12.7634773,cover=142.324814
						91:[Energielabel_encoded<2] yes=165,no=166,missing=166,gain=12.915535,cover=133.316833
							165:leaf=0.00143560034,cover=24.2286243
							166:leaf=-0.00657651527,cover=109.088211
						92:[Huurobject_x<82] yes=167,no=168,missing=168,gain=3.86641502,cover=9.00797272
							167:leaf=0.0109581249,cover=5.80708551
							168:leaf=-0.00186420244,cover=3.20088673
					48:[Huurobject_x<110] yes=93,no=94,missing=94,gain=10.1988373,cover=81.0186081
						93:[complexnummer<2085] yes=169,no=170,missing=170,gain=11.8766937,cover=77.8342133
							169:leaf=-0.0156860631,cover=39.4900284
							170:leaf=-0.00753561128,cover=38.3441887
						94:leaf=0.0051322314,cover=3.18439531
				24:[Verhuurbaar vloeroppervlakte<64.2300034] yes=49,no=50,missing=50,gain=31.4306183,cover=81.9685516
					49:[Verhuurbaar vloeroppervlakte<5.13999987] yes=95,no=96,missing=96,gain=5.03158569,cover=43.7226295
						95:leaf=-0.00461132172,cover=3.10110593
						96:[Verhuurbaar vloeroppervlakte<59.9799995] yes=171,no=172,missing=172,gain=1.08241272,cover=40.6215248
							171:leaf=-0.0214021746,cover=28.9400425
							172:leaf=-0.0140165696,cover=11.6814795
					50:[1e Slaapkamer<12.8100004] yes=97,no=98,missing=98,gain=16.2287331,cover=38.2459221
						97:[Bergruimte/schuur 1<9.92000008] yes=173,no=174,missing=174,gain=6.20300865,cover=28.4912834
							173:leaf=-0.00705307908,cover=23.1107998
							174:leaf=-0.0189530179,cover=5.3804841
						98:[Huurklasse_klaliteitskorting Betaalbaar<1] yes=175,no=176,missing=176,gain=2.55063868,cover=9.75463867
							175:leaf=0.00827266462,cover=5.94641447
							176:leaf=-0.0015616595,cover=3.8082242
			12:[Huurdersomloopsnelheid<0.129032254] yes=25,no=26,missing=26,gain=29.4229507,cover=449.637268
				25:[Postcode_encoded<847] yes=51,no=52,missing=52,gain=28.3299198,cover=87.821167
					51:[Leegwaarde<180675] yes=99,no=100,missing=100,gain=9.73636913,cover=35.3346138
						99:[Leegwaarde<176750] yes=177,no=178,missing=178,gain=14.0014877,cover=28.6848888
							177:leaf=-0.00478748046,cover=24.4253712
							178:leaf=0.0131562203,cover=4.25951767
						100:[Verhuurbaar vloeroppervlakte<84.4000015] yes=179,no=180,missing=180,gain=1.4298954,cover=6.64972544
							179:leaf=-0.00701341778,cover=3.5580008
							180:leaf=-0.0193886422,cover=3.09172463
					52:[Construction<2015] yes=101,no=102,missing=102,gain=11.2468815,cover=52.486557
						101:[1e Slaapkamer<14.1099997] yes=181,no=182,missing=182,gain=5.09460974,cover=19.530447
							181:leaf=0.0032074505,cover=16.3358383
							182:leaf=-0.00908275321,cover=3.19460917
						102:[Totaal overige ruimtes<22.6599998] yes=183,no=184,missing=184,gain=7.8754425,cover=32.9561081
							183:leaf=0.0122780837,cover=28.5893688
							184:leaf=-0.00174312724,cover=4.36674023
				26:[complexnummer<7172] yes=53,no=54,missing=54,gain=16.9606056,cover=361.816101
					53:[complexnummer<7129] yes=103,no=104,missing=104,gain=16.6376686,cover=314.704102
						103:[Leegwaarde<215355] yes=185,no=186,missing=186,gain=16.5431709,cover=239.390106
							185:leaf=-0.00392189901,cover=229.261505
							186:leaf=-0.0164819695,cover=10.128603
						104:[Huurobject_x<38] yes=187,no=188,missing=188,gain=12.8441095,cover=75.314003
							187:leaf=0.00292728795,cover=60.3235779
							188:leaf=-0.0071387752,cover=14.9904261
					54:[VABI_finished_year<2019] yes=105,no=106,missing=106,gain=18.6195259,cover=47.1119728
						105:[Verhuurbaar vloeroppervlakte<85.7300034] yes=189,no=190,missing=190,gain=15.0443764,cover=33.0639648
							189:leaf=-0.00599588966,cover=15.7473431
							190:leaf=-0.0198742896,cover=17.3166218
						106:[Huurobject_x<17] yes=191,no=192,missing=192,gain=10.2823687,cover=14.048008
							191:leaf=0.00948417,cover=5.71035004
							192:leaf=-0.00674386555,cover=8.33765793
		6:[Totaal overige ruimtes<14.1700001] yes=13,no=14,missing=14,gain=22.292572,cover=94.0490494
			13:[complexnummer<7081] yes=27,no=28,missing=28,gain=1.71524048,cover=75.777565
				27:leaf=-0.0222232714,cover=25.6098595
				28:[Huurobject_x<88] yes=55,no=56,missing=56,gain=2.00918579,cover=50.1677094
					55:[Huurdersomloopsnelheid<0.75] yes=107,no=108,missing=108,gain=2.50415039,cover=46.5828743
						107:[Huurklasse_klaliteitskorting Betaalbaar<1] yes=193,no=194,missing=194,gain=2.40243149,cover=25.1293545
							193:leaf=-0.0152681172,cover=21.1840439
							194:leaf=-0.00499756355,cover=3.94531131
						108:leaf=-0.0206330363,cover=21.4535198
					56:leaf=-0.00670137815,cover=3.58483481
			14:[Contract_duur_vorige_huurder_>3<1] yes=29,no=30,missing=30,gain=5.8776927,cover=18.2714844
				29:[1e Slaapkamer<17.7000008] yes=57,no=58,missing=58,gain=4.47114134,cover=14.8051157
					57:[1e Slaapkamer<13.8500004] yes=109,no=110,missing=110,gain=3.65245008,cover=11.6997414
						109:[Huurobject_x<22] yes=195,no=196,missing=196,gain=2.67713356,cover=7.75859785
							195:leaf=0.00228488259,cover=3.69323564
							196:leaf=-0.00842982251,cover=4.06536198
						110:leaf=0.00710263476,cover=3.94114351
					58:leaf=-0.0118638584,cover=3.1053741
				30:leaf=-0.0162657872,cover=3.46636987
booster[5]:
0:[Totaal_Aantal_Historische_Huurders<4] yes=1,no=2,missing=2,gain=465.24231,cover=3589.79077
	1:[Construction<2017] yes=3,no=4,missing=4,gain=304.608032,cover=3362.68042
		3:[WOZ waarde<86000] yes=7,no=8,missing=8,gain=93.8864594,cover=2886.11401
			7:[Construction<1976] yes=15,no=16,missing=16,gain=12.2933435,cover=549.516052
				15:[VABI_finished<2020] yes=31,no=32,missing=32,gain=10.6568356,cover=147.504547
					31:[regio_Zuid-Limburg<1] yes=53,no=54,missing=54,gain=1.06892872,cover=9.24991703
						53:leaf=0.000956263393,cover=3.3200779
						54:leaf=0.00818337873,cover=5.92983866
					32:[Totaal kamers<63.5999985] yes=55,no=56,missing=56,gain=9.00107574,cover=138.254639
						55:[Totaal overige ruimtes<13.4099998] yes=95,no=96,missing=96,gain=10.0731392,cover=130.295578
							95:leaf=-0.00468545547,cover=123.180359
							96:leaf=0.00690453174,cover=7.1152153
						56:[Totaal_Aantal_Historische_Huurders<2] yes=97,no=98,missing=98,gain=2.82523346,cover=7.95905781
							97:leaf=-0.0187749006,cover=4.87234783
							98:leaf=-0.0047881552,cover=3.08670998
				16:[WOZ waarde (WWS)<58000] yes=33,no=34,missing=34,gain=13.159687,cover=402.011475
					33:[Construction<1978] yes=57,no=58,missing=58,gain=9.96730423,cover=192.469162
						57:leaf=-0.0169534627,cover=3.68871021
						58:[Construction<1981] yes=99,no=100,missing=100,gain=8.22531509,cover=188.780457
							99:leaf=0.00908375997,cover=5.35131693
							100:leaf=-0.00252282573,cover=183.429138
					34:[Postcode_cijfers_ 6412 <1] yes=59,no=60,missing=60,gain=8.89014626,cover=209.542313
						59:[2e Slaapkamer<10.6300001] yes=101,no=102,missing=102,gain=7.19684792,cover=166.205368
							101:leaf=-0.000918712292,cover=137.766159
							102:leaf=0.00452489173,cover=28.4392185
						60:[Bruto vloeroppervlakte<66.8899994] yes=103,no=104,missing=104,gain=5.60502911,cover=43.3369446
							103:leaf=0.00814753212,cover=24.3941975
							104:leaf=0.000906542526,cover=18.9427471
			8:[Totaal_Aantal_Historische_Huurders<3] yes=17,no=18,missing=18,gain=60.1658783,cover=2336.5979
				17:[WOZ waarde (WWS)<129000] yes=35,no=36,missing=36,gain=24.4381104,cover=2160.63379
					35:[Postcode_cijfers_ 6361 <1] yes=61,no=62,missing=62,gain=17.6820221,cover=1357.8114
						61:[Bergruimte/schuur 1<6.42999983] yes=105,no=106,missing=106,gain=12.8448334,cover=1340.04736
							105:leaf=0.00367598073,cover=755.867432
							106:leaf=0.001697061,cover=584.179993
						62:[2e Slaapkamer<6.26000023] yes=107,no=108,missing=108,gain=7.57684708,cover=17.7640095
							107:leaf=-0.00199988345,cover=11.9493608
							108:leaf=-0.0154183377,cover=5.81464911
					36:[Totaal_Aantal_Historische_Huurders<2] yes=63,no=64,missing=64,gain=12.0650635,cover=802.822449
						63:[WOZ waarde<212000] yes=109,no=110,missing=110,gain=12.0342712,cover=705.800842
							109:leaf=0.0055564926,cover=687.237549
							110:leaf=-0.00249093282,cover=18.5632801
						64:[Bergruimte/schuur 1<5.03999996] yes=111,no=112,missing=112,gain=4.6129365,cover=97.0215912
							111:leaf=0.00474834349,cover=30.0327644
							112:leaf=8.32833903e-05,cover=66.9888306
				18:[Contract_duur_vorige_huurder_>3<1] yes=37,no=38,missing=38,gain=10.9848814,cover=175.964157
					37:[Bergruimte/schuur 1<16.8999996] yes=65,no=66,missing=66,gain=13.3885145,cover=129.866379
						65:[Bruto vloeroppervlakte<102.730003] yes=113,no=114,missing=114,gain=6.92158031,cover=125.107498
							113:leaf=0.000682128419,cover=104.813416
							114:leaf=-0.00556715811,cover=20.2940807
						66:leaf=-0.0159658603,cover=4.75888062
					38:[WOZ waarde (WWS)<129000] yes=67,no=68,missing=68,gain=14.0035343,cover=46.0977859
						67:[Energielabel_C<1] yes=115,no=116,missing=116,gain=7.36717224,cover=30.4283447
							115:leaf=-0.0128933191,cover=24.4941101
							116:leaf=-0.000445232523,cover=5.9342351
						68:[Construction<1995] yes=117,no=118,missing=118,gain=6.44580507,cover=15.6694403
							117:leaf=0.00679220026,cover=8.06555462
							118:leaf=-0.00529977353,cover=7.60388517
		4:[Construction<2021] yes=9,no=10,missing=10,gain=21.7528839,cover=476.566345
			9:[Totaal kamers<56.7000008] yes=19,no=20,missing=20,gain=22.9532471,cover=466.5065
				19:[Postcode_encoded<1456] yes=39,no=40,missing=40,gain=22.012146,cover=167.23761
					39:[Eengezins_Meergezins_Niet benoemd<1] yes=69,no=70,missing=70,gain=12.0523834,cover=104.239532
						69:leaf=-0.0181734599,cover=28.7736053
						70:[Postcode_encoded<786] yes=119,no=120,missing=120,gain=8.27075958,cover=75.4659271
							119:leaf=-0.00707273046,cover=43.2893295
							120:leaf=-0.0140742511,cover=32.1766014
					40:[Postcode_encoded<1911] yes=71,no=72,missing=72,gain=21.7059593,cover=62.9980736
						71:[Totaal_Aantal_Historische_Huurders<2] yes=121,no=122,missing=122,gain=13.5442886,cover=44.382679
							121:leaf=0.00211217464,cover=33.6113853
							122:leaf=-0.0103104049,cover=10.7712917
						72:[Totaal_Aantal_Historische_Huurders<2] yes=123,no=124,missing=124,gain=3.12125015,cover=18.6153965
							123:leaf=-0.0174800232,cover=10.3215857
							124:leaf=-0.00766889006,cover=8.29381084
				20:[Totaal overige ruimtes<5.0999999] yes=41,no=42,missing=42,gain=20.407074,cover=299.26889
					41:[WOZ waarde (WWS)<152000] yes=73,no=74,missing=74,gain=12.7546072,cover=37.1277695
						73:leaf=0.0139717925,cover=6.04247522
						74:[Bruto vloeroppervlakte<93.7300034] yes=125,no=126,missing=126,gain=10.4502106,cover=31.0852947
							125:leaf=-0.0122652119,cover=5.48721838
							126:leaf=0.00189571956,cover=25.5980759
					42:[Postcode_cijfers_ 6004 <1] yes=75,no=76,missing=76,gain=21.9394302,cover=262.141113
						75:[WOZ waarde (WWS)<40480] yes=127,no=128,missing=128,gain=16.9573975,cover=253.841934
							127:leaf=-0.0215823781,cover=6.4878006
							128:leaf=-0.00611461373,cover=247.354126
						76:[WOZ waarde (WWS)<186000] yes=129,no=130,missing=130,gain=1.79484272,cover=8.29917622
							129:leaf=0.0131590264,cover=4.25956345
							130:leaf=0.00319559663,cover=4.03961277
			10:[2e Slaapkamer<10.8400002] yes=21,no=22,missing=22,gain=0.696558475,cover=10.0598469
				21:leaf=0.00434367592,cover=6.26193142
				22:leaf=0.010842192,cover=3.79791546
	2:[Aantal_Historische_Huurders_Vanaf_contractdatum<2] yes=5,no=6,missing=6,gain=17.0189209,cover=227.110321
		5:[VABI_finished<2019] yes=11,no=12,missing=12,gain=8.83687592,cover=55.5192413
			11:[Postcode_encoded<1136] yes=23,no=24,missing=24,gain=0.116527557,cover=10.6349459
				23:leaf=-0.018620152,cover=7.4222641
				24:leaf=-0.00885155983,cover=3.21268153
			12:[Huurklasse_klaliteitskorting Betaalbaar<1] yes=25,no=26,missing=26,gain=5.42301941,cover=44.8842964
				25:[Bruto vloeroppervlakte<60.9700012] yes=43,no=44,missing=44,gain=9.11621761,cover=28.5404568
					43:[VABI_finished<2024] yes=77,no=78,missing=78,gain=6.71920586,cover=13.0437727
						77:leaf=-0.0179987233,cover=4.67599392
						78:[Bruto vloeroppervlakte<13.75] yes=131,no=132,missing=132,gain=5.40985298,cover=8.36777878
							131:leaf=-0.00983995199,cover=4.54779673
							132:leaf=0.00477942266,cover=3.81998253
					44:[Totaal overige ruimtes<6.05999994] yes=79,no=80,missing=80,gain=5.98575735,cover=15.4966841
						79:leaf=0.00917917304,cover=5.3677392
						80:[EP2_waarde<64.9000015] yes=133,no=134,missing=134,gain=4.63186312,cover=10.1289444
							133:leaf=0.00419232901,cover=4.41278934
							134:leaf=-0.00834932737,cover=5.71615553
				26:[EP2_waarde<98.3799973] yes=45,no=46,missing=46,gain=3.32447243,cover=16.3438396
					45:[WOZ waarde (WWS)<80000] yes=81,no=82,missing=82,gain=7.59660912,cover=11.934679
						81:leaf=-0.0137706054,cover=6.46373129
						82:leaf=0.00149541802,cover=5.47094774
					46:leaf=-0.0180187784,cover=4.40916061
		6:[Construction<2008] yes=13,no=14,missing=14,gain=10.1293335,cover=171.59108
			13:[EP2_waarde<87.4800034] yes=27,no=28,missing=28,gain=7.82519531,cover=96.9088135
				27:[Construction<1975] yes=47,no=48,missing=48,gain=2.55151367,cover=63.3698692
					47:[WOZ waarde<91000] yes=83,no=84,missing=84,gain=5.11157227,cover=13.0076904
						83:[Bruto vloeroppervlakte<57.8600006] yes=135,no=136,missing=136,gain=2.8748281,cover=8.84239769
							135:leaf=-0.00818417128,cover=5.73653173
							136:leaf=0.00275849854,cover=3.10586548
						84:leaf=-0.0177420806,cover=4.16529322
					48:[Totaal kamers<69.1600037] yes=85,no=86,missing=86,gain=2.3518219,cover=50.3621788
						85:[WOZ waarde (WWS)<86000] yes=137,no=138,missing=138,gain=0.364715576,cover=47.0207672
							137:leaf=-0.0184991788,cover=29.684433
							138:leaf=-0.0132549424,cover=17.3363323
						86:leaf=-0.00573415915,cover=3.34141207
				28:[Contract_duur_vorige_huurder_>3<1] yes=49,no=50,missing=50,gain=7.28186417,cover=33.5389442
					49:[WOZ waarde<98000] yes=87,no=88,missing=88,gain=6.52129889,cover=25.1870804
						87:[2e Slaapkamer<4.80000019] yes=139,no=140,missing=140,gain=6.68644428,cover=11.1051331
							139:leaf=-0.00540490542,cover=7.04857206
							140:leaf=0.00926929712,cover=4.05656099
						88:[Totaal overige ruimtes<6.9000001] yes=141,no=142,missing=142,gain=1.70692539,cover=14.0819473
							141:leaf=-0.00457737874,cover=5.96100616
							142:leaf=-0.0127030034,cover=8.12094116
					50:[Construction<1985] yes=89,no=90,missing=90,gain=0.129772186,cover=8.35186481
						89:leaf=-0.0188111756,cover=5.13185596
						90:leaf=-0.00875862502,cover=3.22000909
			14:[Totaal_Aantal_Historische_Huurders<5] yes=29,no=30,missing=30,gain=4.61425781,cover=74.6822586
				29:[Aantal_Historische_Huurders_Vanaf_contractdatum<4] yes=51,no=52,missing=52,gain=5.67300415,cover=39.2398262
					51:[Totaal overige ruimtes<11.8400002] yes=91,no=92,missing=92,gain=3.5979538,cover=24.4793358
						91:leaf=-0.0205400866,cover=18.249855
						92:[3e Slaapkamer flag<1] yes=143,no=144,missing=144,gain=0.393465519,cover=6.22948027
							143:leaf=-0.0118023111,cover=3.10958767
							144:leaf=-0.00436889986,cover=3.11989236
					52:[WOZ waarde<117000] yes=93,no=94,missing=94,gain=3.76226997,cover=14.7604904
						93:[WOZ waarde (WWS)<40480] yes=145,no=146,missing=146,gain=1.12328529,cover=7.81399393
							145:leaf=-0.00649994286,cover=3.60164595
							146:leaf=-0.0171410777,cover=4.21234798
						94:[WOZ waarde (WWS)<164000] yes=147,no=148,missing=148,gain=2.23984146,cover=6.94649696
							147:leaf=0.00277946144,cover=3.10773945
							148:leaf=-0.00745085813,cover=3.83875751
				30:leaf=-0.0214978736,cover=35.4424324
booster[6]:
0:[complexnummer<2052] yes=1,no=2,missing=2,gain=365.838043,cover=3603.70654
	1:[Contract_duur_vorige_huurder_n.v.t.<1] yes=3,no=4,missing=4,gain=202.835449,cover=3051.06592
		3:[Verwarmde vertrekken<4] yes=7,no=8,missing=8,gain=36.0891647,cover=503.118591
			7:[Postcode_cijfers_ 6132 <1] yes=15,no=16,missing=16,gain=6.55199432,cover=90.5298462
				15:[Leegwaarde<78000] yes=31,no=32,missing=32,gain=3.18439484,cover=86.8248749
					31:[Totaal overige ruimtes<7.0999999] yes=55,no=56,missing=56,gain=3.0013504,cover=69.4283142
						55:[WOZ waarde<8001] yes=99,no=100,missing=100,gain=1.48453522,cover=66.2063675
							99:leaf=-0.00837033149,cover=16.5066357
							100:leaf=-0.0131069589,cover=49.6997337
						56:leaf=-0.00162627758,cover=3.22194028
					32:[complexnummer<585] yes=57,no=58,missing=58,gain=7.41658497,cover=17.3965626
						57:[EP2_waarde<192.850006] yes=101,no=102,missing=102,gain=1.00833559,cover=6.43991995
							101:leaf=-0.00161875202,cover=3.22250938
							102:leaf=0.00543397712,cover=3.21741056
						58:[WOZ waarde (WWS)<120000] yes=103,no=104,missing=104,gain=8.57293415,cover=10.9566431
							103:leaf=-0.0177441053,cover=6.20129967
							104:leaf=-0.00036471535,cover=4.75534344
				16:leaf=0.0023956995,cover=3.70497155
			8:[Contractsoort_Short Stay<1] yes=17,no=18,missing=18,gain=16.6555252,cover=412.588745
				17:[Totaal overige ruimtes<28.9599991] yes=33,no=34,missing=34,gain=7.85373306,cover=408.014252
					33:[EP2_waarde<117.589996] yes=59,no=60,missing=60,gain=7.0973053,cover=387.994781
						59:[Leegwaarde<60000] yes=105,no=106,missing=106,gain=8.53303528,cover=249.067902
							105:leaf=0.0037592852,cover=12.1425276
							106:leaf=-0.00460201083,cover=236.925369
						60:[WOZ waarde<143000] yes=107,no=108,missing=108,gain=7.09114552,cover=138.926895
							107:leaf=-0.00253382977,cover=108.844063
							108:leaf=0.0028831705,cover=30.0828266
					34:[Badkamer/doucheruimte 1<2.51999998] yes=61,no=62,missing=62,gain=5.36617756,cover=20.0194492
						61:leaf=0.00999785867,cover=6.39160109
						62:[Wastafel/bidet/lavet/fontein 1<2] yes=109,no=110,missing=110,gain=4.54785633,cover=13.6278477
							109:leaf=-0.00665319618,cover=5.80896139
							110:leaf=0.00422957074,cover=7.81888628
				18:leaf=-0.0203091074,cover=4.57450056
		4:[WOZ waarde<86000] yes=9,no=10,missing=10,gain=124.681,cover=2547.94727
			9:[complexnummer<928] yes=19,no=20,missing=20,gain=16.835001,cover=485.725952
				19:[WOZ waarde<59000] yes=35,no=36,missing=36,gain=19.1341934,cover=359.654205
					35:[WOZ waarde<58000] yes=63,no=64,missing=64,gain=11.579567,cover=95.2770691
						63:[Postcode_cijfers_ 6411 <1] yes=111,no=112,missing=112,gain=5.23983765,cover=89.4427261
							111:leaf=-0.00637960667,cover=85.6333771
							112:leaf=0.00468646456,cover=3.80934429
						64:leaf=-0.0196330883,cover=5.83434772
					36:[Bergruimte/schuur 2<2.49000001] yes=65,no=66,missing=66,gain=17.7539902,cover=264.377136
						65:[complexnummer<720] yes=113,no=114,missing=114,gain=7.18216038,cover=235.638199
							113:leaf=-9.10980361e-06,cover=199.501648
							114:leaf=-0.00479871966,cover=36.1365547
						66:[Leegwaarde<74000] yes=115,no=116,missing=116,gain=2.75270653,cover=28.7389507
							115:leaf=-0.0067229718,cover=22.0907917
							116:leaf=-0.014561791,cover=6.64815855
				20:[Leegwaarde<10000] yes=37,no=38,missing=38,gain=13.5835896,cover=126.071724
					37:[complexnummer<1391] yes=67,no=68,missing=68,gain=5.99196434,cover=36.2983437
						67:[WOZ waarde<9000] yes=117,no=118,missing=118,gain=1.53521347,cover=26.1708546
							117:leaf=0.0124060744,cover=8.30167389
							118:leaf=0.00638109539,cover=17.8691807
						68:leaf=-0.000304296991,cover=10.1274881
					38:[regio_Noord-Limburg<1] yes=69,no=70,missing=70,gain=31.1734219,cover=89.7733841
						69:[complexnummer<1504] yes=119,no=120,missing=120,gain=19.5105801,cover=62.9472656
							119:leaf=0.00735527743,cover=37.9652977
							120:leaf=-0.00385637581,cover=24.9819679
						70:[Badkamer/doucheruimte 1<4.82000017] yes=121,no=122,missing=122,gain=3.4585247,cover=26.8261185
							121:leaf=-0.00716115953,cover=20.541193
							122:leaf=-0.0161302481,cover=6.28492451
			10:[WOZ waarde<126000] yes=21,no=22,missing=22,gain=25.5369263,cover=2062.22144
				21:[Totaal overige ruimtes<29.7000008] yes=39,no=40,missing=40,gain=14.8794212,cover=790.719482
					39:[WOZ waarde (WWS)<110000] yes=71,no=72,missing=72,gain=13.6521549,cover=746.535217
						71:[Bergruimte/schuur 2<4.86999989] yes=123,no=124,missing=124,gain=18.4656677,cover=603.206726
							123:leaf=0.00206705648,cover=561.997681
							124:leaf=0.00893680099,cover=41.2090607
						72:[Leegwaarde<99000] yes=125,no=126,missing=126,gain=24.134449,cover=143.328522
							125:leaf=0.00533614494,cover=42.779747
							126:leaf=-0.00354745286,cover=100.548767
					40:[Leegwaarde<127000] yes=73,no=74,missing=74,gain=2.81474304,cover=44.1842499
						73:[Leegwaarde<91000] yes=127,no=128,missing=128,gain=1.99752235,cover=40.6425858
							127:leaf=0.000817818858,cover=3.30590773
							128:leaf=0.00918428414,cover=37.3366776
						74:leaf=-0.000587848073,cover=3.5416646
				22:[Leegwaarde<172000] yes=41,no=42,missing=42,gain=13.1321716,cover=1271.50195
					41:[WOZ waarde (WWS)<175000] yes=75,no=76,missing=76,gain=13.1012268,cover=1181.56384
						75:[Bergruimte/schuur 2<4.30000019] yes=129,no=130,missing=130,gain=12.8641205,cover=1140.1427
							129:leaf=0.00425289758,cover=1036.27588
							130:leaf=0.00795816444,cover=103.866776
						76:[Badkamer/doucheruimte 1<7.21999979] yes=131,no=132,missing=132,gain=9.20817947,cover=41.4210968
							131:leaf=0.0116301877,cover=38.3562431
							132:leaf=-0.00504601002,cover=3.06485271
					42:[complexnummer<2001] yes=77,no=78,missing=78,gain=11.1324749,cover=89.9381409
						77:[WOZ waarde (WWS)<141000] yes=133,no=134,missing=134,gain=9.05850315,cover=77.1335373
							133:leaf=-0.0122434767,cover=5.19575882
							134:leaf=0.000353956391,cover=71.9377823
						78:[WOZ waarde<151000] yes=135,no=136,missing=136,gain=0.817652702,cover=12.8046045
							135:leaf=0.0129313646,cover=4.21817636
							136:leaf=0.00607061898,cover=8.58642864
	2:[Contract_duur_vorige_huurder_n.v.t.<1] yes=5,no=6,missing=6,gain=78.0887146,cover=552.640625
		5:[complexnummer<7042] yes=11,no=12,missing=12,gain=9.26077271,cover=127.901787
			11:[Wastafel/bidet/lavet/fontein 1<1] yes=23,no=24,missing=24,gain=2.31520081,cover=26.9721031
				23:leaf=-0.0112323593,cover=6.38074493
				24:leaf=-0.0217470303,cover=20.5913582
			12:[Zolder<15.3900003] yes=25,no=26,missing=26,gain=7.40908813,cover=100.929688
				25:[Totaal overige ruimtes<4.15999985] yes=43,no=44,missing=44,gain=5.22250366,cover=86.2208099
					43:[WOZ waarde (WWS)<53000] yes=79,no=80,missing=80,gain=4.94224167,cover=43.5660591
						79:[WOZ waarde<12475.8701] yes=137,no=138,missing=138,gain=1.09500122,cover=36.8614388
							137:leaf=-0.0146948239,cover=16.3719921
							138:leaf=-0.00955572724,cover=20.4894485
						80:[Totaal overige ruimtes<3] yes=139,no=140,missing=140,gain=0.88818121,cover=6.70461798
							139:leaf=0.0011498502,cover=3.33857679
							140:leaf=-0.00542344572,cover=3.36604095
					44:[Badkamer/doucheruimte 1<4.48000002] yes=81,no=82,missing=82,gain=0.25907135,cover=42.6547546
						81:leaf=-0.0216177143,cover=6.73486996
						82:[Badkamer/doucheruimte 1<4.82000017] yes=141,no=142,missing=142,gain=0.555786133,cover=35.9198837
							141:leaf=-0.00749747455,cover=3.83454847
							142:leaf=-0.0155188851,cover=32.0853348
				26:[Badkamer/doucheruimte 1<5.30999994] yes=45,no=46,missing=46,gain=7.09322262,cover=14.7088737
					45:[Zolder<21.5] yes=83,no=84,missing=84,gain=2.69743586,cover=8.72748089
						83:leaf=0.00505126687,cover=4.78371811
						84:leaf=-0.0050121122,cover=3.9437623
					46:leaf=-0.0130170621,cover=5.98139286
		6:[Postcode_cijfers_ 6001 <1] yes=13,no=14,missing=14,gain=21.866684,cover=424.7388
			13:[complexnummer<7139] yes=27,no=28,missing=28,gain=23.931221,cover=369.289551
				27:[Verwarmde vertrekken<5] yes=47,no=48,missing=48,gain=16.8689499,cover=268.236389
					47:[Badkamer/doucheruimte 1<1.49000001] yes=85,no=86,missing=86,gain=38.4525604,cover=109.054428
						85:[complexnummer<7003] yes=143,no=144,missing=144,gain=7.83748627,cover=80.9405136
							143:leaf=0.00801719259,cover=3.33373237
							144:leaf=-0.00604589516,cover=77.606781
						86:[EP2_waarde<120.660004] yes=145,no=146,missing=146,gain=0.951896667,cover=28.1139126
							145:leaf=-0.0212122034,cover=17.8994637
							146:leaf=-0.013302586,cover=10.2144508
					48:[WOZ waarde<164000] yes=87,no=88,missing=88,gain=21.9682217,cover=159.181961
						87:[WOZ waarde (WWS)<142000] yes=147,no=148,missing=148,gain=10.9340658,cover=54.776741
							147:leaf=-0.0035830962,cover=24.783041
							148:leaf=0.00523711089,cover=29.9936981
						88:[Leegwaarde<215684] yes=149,no=150,missing=150,gain=10.667244,cover=104.40522
							149:leaf=-0.00556972111,cover=97.7028351
							150:leaf=-0.0180283487,cover=6.7023921
				28:[complexnummer<7156] yes=49,no=50,missing=50,gain=31.7993736,cover=101.053146
					49:[3e Slaapkamer<6.30000019] yes=89,no=90,missing=90,gain=8.0334568,cover=36.9814453
						89:[Bergruimte/schuur 2<2] yes=151,no=152,missing=152,gain=1.49498177,cover=32.4598732
							151:leaf=0.00688289944,cover=23.8039837
							152:leaf=0.0125524895,cover=8.65589142
						90:leaf=-0.00467648683,cover=4.52156973
					50:[WOZ waarde<25452] yes=91,no=92,missing=92,gain=24.119133,cover=64.071701
						91:[regio_Noord-Limburg<1] yes=153,no=154,missing=154,gain=3.97142649,cover=19.7474594
							153:leaf=0.00748143764,cover=13.2873735
							154:leaf=-0.00173924142,cover=6.46008444
						92:[Leegwaarde<195000] yes=155,no=156,missing=156,gain=15.7670097,cover=44.3242416
							155:leaf=-0.0133378357,cover=26.3099022
							156:leaf=-0.00121229119,cover=18.0143414
			14:[WOZ waarde (WWS)<164000] yes=29,no=30,missing=30,gain=10.8910294,cover=55.4492683
				29:[Leegwaarde<10000] yes=51,no=52,missing=52,gain=7.93701172,cover=25.2251091
					51:leaf=-0.0039431625,cover=5.15459251
					52:[complexnummer<2075] yes=93,no=94,missing=94,gain=0.0483093262,cover=20.0705166
						93:leaf=-0.0116366344,cover=5.26193762
						94:leaf=-0.0203320682,cover=14.8085785
				30:[WOZ waarde (WWS)<186000] yes=53,no=54,missing=54,gain=8.69642258,cover=30.2241592
					53:[Badkamer/doucheruimte 1<5.0999999] yes=95,no=96,missing=96,gain=5.78367662,cover=6.80911827
						95:leaf=0.0105965706,cover=3.46591163
						96:leaf=-0.00571348891,cover=3.34320641
					54:[Totaal overige ruimtes<12] yes=97,no=98,missing=98,gain=1.93613434,cover=23.415041
						97:[Badkamer/doucheruimte 1<5.53999996] yes=157,no=158,missing=158,gain=0.34340477,cover=15.177269
							157:leaf=-0.0127934534,cover=11.8338594
							158:leaf=-0.00570905907,cover=3.34340978
						98:[WOZ waarde (WWS)<196000] yes=159,no=160,missing=160,gain=0.810885906,cover=8.23777199
							159:leaf=-0.00132917764,cover=4.41524029
							160:leaf=-0.00764023047,cover=3.82253146
booster[7]:
0:[Huurdersomloopsnelheid<0.0930232555] yes=1,no=2,missing=2,gain=477.71698,cover=3557.28174
	1:[WOZ waarde<96000] yes=3,no=4,missing=4,gain=107.063789,cover=2701.65137
		3:[age_bucket_numeric<19] yes=7,no=8,missing=8,gain=40.7737122,cover=737.641785
			7:[WOZ waarde (WWS)<58000] yes=15,no=16,missing=16,gain=18.0443954,cover=522.276367
				15:[Postcode_encoded<471] yes=31,no=32,missing=32,gain=16.9293022,cover=119.134071
					31:[Huurobject_x<23] yes=61,no=62,missing=62,gain=7.68906784,cover=23.055191
						61:leaf=-0.00853150338,cover=4.87515354
						62:[Huurobject_x<45] yes=113,no=114,missing=114,gain=3.70060277,cover=18.1800365
							113:leaf=0.0115149124,cover=4.50361872
							114:leaf=0.00164581032,cover=13.6764183
					32:[Postcode_encoded<1501] yes=63,no=64,missing=64,gain=11.9018707,cover=96.0788803
						63:[Huurobject_x<128] yes=115,no=116,missing=116,gain=8.4167366,cover=16.7223015
							115:leaf=-0.0225766059,cover=7.87185717
							116:leaf=-0.00745406654,cover=8.85044384
						64:[age_bucket_numeric<16] yes=117,no=118,missing=118,gain=14.9789925,cover=79.3565826
							117:leaf=-0.00764452061,cover=71.0448303
							118:leaf=0.00600081543,cover=8.31175518
				16:[Huurdersomloopsnelheid<0.0645161271] yes=33,no=34,missing=34,gain=22.2358246,cover=403.142303
					33:[Postcode_encoded<2025] yes=65,no=66,missing=66,gain=16.998558,cover=343.551575
						65:[Postcode_cijfers_ 6351 <1] yes=119,no=120,missing=120,gain=9.20440865,cover=219.18808
							119:leaf=-0.0020446782,cover=215.747574
							120:leaf=-0.0166320372,cover=3.44050193
						66:[WOZ waarde (WWS)<85000] yes=121,no=122,missing=122,gain=13.8561783,cover=124.363487
							121:leaf=0.00320083764,cover=115.724472
							122:leaf=-0.00929690897,cover=8.63901424
					34:[WOZ waarde (WWS)<63000] yes=67,no=68,missing=68,gain=6.22618294,cover=59.5907516
						67:[Gebruiksoppervlak<62.5800018] yes=123,no=124,missing=124,gain=3.15319443,cover=12.1492338
							123:leaf=-0.00622401386,cover=5.01032209
							124:leaf=0.00333470362,cover=7.1389122
						68:[Aparte douche/lavet+douche 1<1] yes=125,no=126,missing=126,gain=3.23682404,cover=47.4415169
							125:leaf=-0.000341288949,cover=4.16285658
							126:leaf=-0.00964840129,cover=43.2786598
			8:[Contract_duur_vorige_huurder_encoded<0] yes=17,no=18,missing=18,gain=17.3777428,cover=215.365372
				17:[Huurdersomloopsnelheid<0.0202020202] yes=35,no=36,missing=36,gain=17.2071171,cover=190.133331
					35:[Huurdersomloopsnelheid<0.0188679248] yes=69,no=70,missing=70,gain=4.84824562,cover=31.7648735
						69:[WOZ waarde<80000] yes=127,no=128,missing=128,gain=0.506792068,cover=6.39698458
							127:leaf=-0.00479087839,cover=3.08639288
							128:leaf=-0.0130567942,cover=3.31059146
						70:[Postcode_encoded<1929] yes=129,no=130,missing=130,gain=5.28053951,cover=25.3678875
							129:leaf=0.00505555095,cover=8.51179981
							130:leaf=-0.00417728676,cover=16.8560886
					36:[Keuken<6.86999989] yes=71,no=72,missing=72,gain=16.3128967,cover=158.368454
						71:[Keuken<6.48000002] yes=131,no=132,missing=132,gain=5.89374161,cover=128.712769
							131:leaf=0.00394152151,cover=117.196083
							132:leaf=-0.00333931879,cover=11.5166864
						72:[Huurdersomloopsnelheid<0.0289855078] yes=133,no=134,missing=134,gain=1.37924194,cover=29.6556911
							133:leaf=0.00737623638,cover=10.9975767
							134:leaf=0.0133360093,cover=18.6581135
				18:[Huurdersomloopsnelheid<0.0500000007] yes=37,no=38,missing=38,gain=7.89844465,cover=25.2320423
					37:[Huurobject_x<20] yes=73,no=74,missing=74,gain=2.01601362,cover=9.73948574
						73:leaf=-0.00228126859,cover=5.23299122
						74:leaf=0.00608318159,cover=4.50649452
					38:[Verwarmde vertrekken<5] yes=75,no=76,missing=76,gain=6.88614368,cover=15.4925556
						75:[WOZ waarde (WWS)<63000] yes=135,no=136,missing=136,gain=0.858373642,cover=11.8159733
							135:leaf=-0.00676660752,cover=4.42516184
							136:leaf=-0.0152959181,cover=7.39081144
						76:leaf=0.00213148864,cover=3.67658234
		4:[Contract_duur_vorige_huurder_encoded<0] yes=9,no=10,missing=10,gain=40.6159821,cover=1964.00964
			9:[age_bucket_numeric<26] yes=19,no=20,missing=20,gain=28.3577423,cover=1757.41187
				19:[Postcode_cijfers_ 6002 <1] yes=39,no=40,missing=40,gain=25.0494385,cover=1472.36072
					39:[Huurdersomloopsnelheid<0.0408163257] yes=77,no=78,missing=78,gain=25.6864014,cover=1452.55505
						77:[Keuken<13] yes=137,no=138,missing=138,gain=17.3141327,cover=1201.25378
							137:leaf=0.00371670141,cover=1146.83801
							138:leaf=0.00946584065,cover=54.4157333
						78:[Gebruiksoppervlak<101.230003] yes=139,no=140,missing=140,gain=34.9081116,cover=251.301254
							139:leaf=0.00206642435,cover=212.585236
							140:leaf=-0.00814360287,cover=38.7160225
					40:[Zolder<5.05000019] yes=79,no=80,missing=80,gain=17.1680851,cover=19.8056698
						79:leaf=-0.0181955118,cover=7.90737677
						80:[Keuken<6.05000019] yes=141,no=142,missing=142,gain=7.87380791,cover=11.8982925
							141:leaf=-0.00529056648,cover=8.14087772
							142:leaf=0.0105729494,cover=3.75741434
				20:[WOZ waarde<184000] yes=41,no=42,missing=42,gain=7.37213135,cover=285.051147
					41:[Postcode_encoded<87] yes=81,no=82,missing=82,gain=7.72512054,cover=246.518677
						81:[Huurobject_x<25] yes=143,no=144,missing=144,gain=10.3851986,cover=16.8204708
							143:leaf=-0.00700231083,cover=9.6503849
							144:leaf=0.00798697304,cover=7.17008543
						82:[WOZ waarde<174000] yes=145,no=146,missing=146,gain=5.73860931,cover=229.698196
							145:leaf=0.00677517988,cover=221.231598
							146:leaf=-0.00145813799,cover=8.46660519
					42:[Huurdersomloopsnelheid<0.0784313753] yes=83,no=84,missing=84,gain=8.27423096,cover=38.5324631
						83:leaf=0.0136440061,cover=27.4907131
						84:[WOZ waarde (WWS)<174000] yes=147,no=148,missing=148,gain=5.31905556,cover=11.04175
							147:leaf=-0.00633481564,cover=3.28918314
							148:leaf=0.0073716864,cover=7.75256729
			10:[Huurdersomloopsnelheid<0.075000003] yes=21,no=22,missing=22,gain=7.83579731,cover=206.597748
				21:[Gebruiksoppervlak<100.769997] yes=43,no=44,missing=44,gain=5.24405527,cover=172.234772
					43:[Huurobject_x<74] yes=85,no=86,missing=86,gain=4.35289955,cover=141.014313
						85:[Gebruiksoppervlak<82.5] yes=149,no=150,missing=150,gain=5.48204136,cover=123.337357
							149:leaf=-0.000285572285,cover=92.7534561
							150:leaf=-0.00511264475,cover=30.5838966
						86:[Huurklasse_Goedkoop<1] yes=151,no=152,missing=152,gain=3.38197351,cover=17.6769638
							151:leaf=-0.00114235713,cover=7.94981909
							152:leaf=0.0073389411,cover=9.72714424
					44:[Contract_duur_vorige_huurder_>3<1] yes=87,no=88,missing=88,gain=5.44365597,cover=31.2204571
						87:[age_bucket_numeric<12] yes=153,no=154,missing=154,gain=2.91330242,cover=17.3857193
							153:leaf=0.00370283634,cover=11.4699354
							154:leaf=0.0124506233,cover=5.91578484
						88:[Verwarmde vertrekken<6] yes=155,no=156,missing=156,gain=6.28080225,cover=13.8347378
							155:leaf=0.00974257104,cover=3.06824708
							156:leaf=-0.00468315789,cover=10.7664909
				22:[Huurdersomloopsnelheid<0.0810810775] yes=45,no=46,missing=46,gain=8.78004169,cover=34.3629761
					45:[Gebruiksoppervlak<71.8300018] yes=89,no=90,missing=90,gain=2.96514702,cover=16.4627476
						89:[WOZ waarde (WWS)<107000] yes=157,no=158,missing=158,gain=4.29157352,cover=7.38568544
							157:leaf=-0.0119593563,cover=3.0986836
							158:leaf=0.00197171769,cover=4.28700161
						90:[Keuken<6.9000001] yes=159,no=160,missing=160,gain=1.75992966,cover=9.07706165
							159:leaf=-0.0171740167,cover=5.72768688
							160:leaf=-0.0056352606,cover=3.34937549
					46:[Postcode_encoded<718] yes=91,no=92,missing=92,gain=3.88273478,cover=17.9002304
						91:[Gebruiksoppervlak<88.5899963] yes=161,no=162,missing=162,gain=3.7095232,cover=12.0492716
							161:leaf=-0.000778477697,cover=8.60855103
							162:leaf=0.0103941411,cover=3.4407208
						92:leaf=-0.0063334587,cover=5.85095882
	2:[Huurdersomloopsnelheid<0.363636374] yes=5,no=6,missing=6,gain=86.9977112,cover=855.630371
		5:[complexnummer<901] yes=11,no=12,missing=12,gain=38.5832214,cover=698.60437
			11:[complexnummer<555] yes=23,no=24,missing=24,gain=9.18244171,cover=91.9949799
				23:[Omschrijving_Vastgoed_Galerijflat<1] yes=47,no=48,missing=48,gain=5.21022034,cover=25.695776
					47:[Verwarmde vertrekken<6] yes=93,no=94,missing=94,gain=2.41794205,cover=14.3012667
						93:leaf=-0.022742698,cover=11.0682497
						94:leaf=-0.00857559498,cover=3.23301768
					48:[Gebruiksoppervlak<48.3899994] yes=95,no=96,missing=96,gain=1.14747524,cover=11.3945084
						95:leaf=-0.00489583053,cover=5.37464046
						96:leaf=-0.0126649579,cover=6.01986742
				24:[age_bucket_numeric<18] yes=49,no=50,missing=50,gain=7.28341293,cover=66.299202
					49:[WOZ waarde<107000] yes=97,no=98,missing=98,gain=5.76821136,cover=58.7855263
						97:[Gebruiksoppervlak<65.9199982] yes=163,no=164,missing=164,gain=6.93132019,cover=49.1932259
							163:leaf=-0.0106029259,cover=34.8692017
							164:leaf=-0.00219074916,cover=14.3240252
						98:leaf=-0.0170241464,cover=9.59229851
					50:[Huurklasse_Goedkoop<1] yes=99,no=100,missing=100,gain=6.66885519,cover=7.51367903
						99:leaf=0.0100218887,cover=3.10081577
						100:leaf=-0.00688679796,cover=4.41286373
			12:[WOZ waarde<7000] yes=25,no=26,missing=26,gain=22.4738388,cover=606.609436
				25:[Huurklasse_Goedkoop<1] yes=51,no=52,missing=52,gain=2.00014496,cover=11.8969345
					51:leaf=-0.00822983403,cover=4.08304214
					52:leaf=-0.0203398578,cover=7.81389236
				26:[Keuken<11.4499998] yes=53,no=54,missing=54,gain=18.5339508,cover=594.712463
					53:[age_bucket_numeric<17] yes=101,no=102,missing=102,gain=12.8173523,cover=548.316528
						101:[Gebruiksoppervlak<54.0800018] yes=165,no=166,missing=166,gain=26.1431122,cover=236.589539
							165:leaf=-0.0115811201,cover=61.6634293
							166:leaf=-0.00400737114,cover=174.926117
						102:[WOZ waarde (WWS)<41816] yes=167,no=168,missing=168,gain=13.8180676,cover=311.726959
							167:leaf=0.000990978559,cover=69.7672653
							168:leaf=-0.00404572906,cover=241.959702
					54:[WOZ waarde (WWS)<196000] yes=103,no=104,missing=104,gain=26.517437,cover=46.3959808
						103:[Postcode_encoded<930] yes=169,no=170,missing=170,gain=5.9343214,cover=39.4585724
							169:leaf=7.96741951e-05,cover=13.4567509
							170:leaf=0.00821439922,cover=26.0018215
						104:leaf=-0.0144989938,cover=6.93741035
		6:[Contract_duur_vorige_huurder_encoded<0] yes=13,no=14,missing=14,gain=25.5626831,cover=157.025986
			13:[Contractsoort_Regulier<1] yes=27,no=28,missing=28,gain=20.8204651,cover=46.281662
				27:leaf=-0.0192652307,cover=9.42036629
				28:[Bergruimte/schuur 1 flag<1] yes=55,no=56,missing=56,gain=13.1130095,cover=36.8612938
					55:[Verwarmde vertrekken<6] yes=105,no=106,missing=106,gain=7.87569809,cover=20.0909004
						105:[age_bucket_numeric<19] yes=171,no=172,missing=172,gain=2.72346687,cover=11.5094986
							171:leaf=-0.0168110598,cover=7.5610199
							172:leaf=-0.00496172998,cover=3.94847894
						106:[WOZ waarde<158000] yes=173,no=174,missing=174,gain=5.71985054,cover=8.58140182
							173:leaf=0.00800804421,cover=3.33228159
							174:leaf=-0.00695374096,cover=5.24912024
					56:[Huurobject_x<19] yes=107,no=108,missing=108,gain=4.14188576,cover=16.7703934
						107:leaf=-0.0055243317,cover=3.35811114
						108:[WOZ waarde<25968] yes=175,no=176,missing=176,gain=3.30760813,cover=13.412282
							175:leaf=0.00173185451,cover=8.86002445
							176:leaf=0.0118208583,cover=4.55225754
			14:[complexnummer<7023] yes=29,no=30,missing=30,gain=13.4914856,cover=110.744324
				29:[age_bucket_numeric<26] yes=57,no=58,missing=58,gain=1.72692871,cover=31.7875614
					57:leaf=-0.022704469,cover=27.8044891
					58:leaf=-0.010588808,cover=3.98307204
				30:[Omschrijving_Vastgoed_Corridorflat<1] yes=59,no=60,missing=60,gain=7.48320007,cover=78.9567642
					59:[Zolder<16] yes=109,no=110,missing=110,gain=2.63221741,cover=68.1285934
						109:[Huurdersomloopsnelheid<0.538461566] yes=177,no=178,missing=178,gain=4.79304504,cover=59.0559196
							177:leaf=-0.0100108944,cover=17.9282398
							178:leaf=-0.0173902344,cover=41.1276779
						110:[Gebruiksoppervlak<111.010002] yes=179,no=180,missing=180,gain=4.42199278,cover=9.07267284
							179:leaf=0.00112570473,cover=3.33658266
							180:leaf=-0.0126406355,cover=5.73609066
					60:[age_bucket_numeric<30] yes=111,no=112,missing=112,gain=4.77137566,cover=10.8281717
						111:[Huurobject_x<8] yes=181,no=182,missing=182,gain=2.88172579,cover=7.35342503
							181:leaf=-0.00132458785,cover=3.24718118
							182:leaf=-0.0138294864,cover=4.10624361
						112:leaf=0.00396811357,cover=3.47474694
booster[8]:
0:[Huurdersomloopsnelheid<0.0930232555] yes=1,no=2,missing=2,gain=457.626343,cover=3548.63501
	1:[Leegwaarde<72000] yes=3,no=4,missing=4,gain=99.7883301,cover=2672.2041
		3:[age_bucket_numeric<21] yes=7,no=8,missing=8,gain=29.3404942,cover=431.049988
			7:[Huurdersomloopsnelheid<0.0465116277] yes=15,no=16,missing=16,gain=17.4904213,cover=344.231934
				15:[Gemeente_encoded<114] yes=31,no=32,missing=32,gain=19.3672523,cover=241.717773
					31:[Gemeente_encoded<110] yes=59,no=60,missing=60,gain=15.3971748,cover=212.93161
						59:[Huurdersomloopsnelheid<0.0338983051] yes=109,no=110,missing=110,gain=15.8966465,cover=179.573868
							109:leaf=-0.00459760241,cover=108.775551
							110:leaf=0.00146325212,cover=70.798317
						60:[Huurdersomloopsnelheid<0.0350877196] yes=111,no=112,missing=112,gain=3.49545002,cover=33.3577423
							111:leaf=0.00636598049,cover=28.7254848
							112:leaf=-0.00253026653,cover=4.63225698
					32:[WOZ waarde (WWS)<82000] yes=61,no=62,missing=62,gain=9.10251045,cover=28.7861691
						61:[Postcode_cijfers_ 6001 <1] yes=113,no=114,missing=114,gain=0.687883377,cover=9.55699062
							113:leaf=-0.0198771264,cover=6.32593727
							114:leaf=-0.00861078221,cover=3.23105359
						62:[Omschrijving_Vastgoed_Galerijflat<1] yes=115,no=116,missing=116,gain=7.24777746,cover=19.2291794
							115:leaf=0.000632004871,cover=10.2156382
							116:leaf=-0.0112817008,cover=9.01354027
				16:[Gebruiksoppervlak<70] yes=33,no=34,missing=34,gain=9.74046326,cover=102.514145
					33:[Gemeente_encoded<59] yes=63,no=64,missing=64,gain=8.42169189,cover=96.8100052
						63:[DAEB=1 niet-DAEB=2<2] yes=117,no=118,missing=118,gain=5.41395187,cover=47.9997978
							117:leaf=-0.0081075849,cover=33.4068375
							118:leaf=-0.0159196146,cover=14.5929585
						64:[age_bucket_numeric<2] yes=119,no=120,missing=120,gain=8.77910709,cover=48.8102112
							119:leaf=0.00771334907,cover=4.29616594
							120:leaf=-0.00605787197,cover=44.5140457
					34:leaf=0.00497874198,cover=5.7041378
			8:[Huurdersomloopsnelheid<0.0192307699] yes=17,no=18,missing=18,gain=7.01394558,cover=86.8180695
				17:leaf=-0.00866809115,cover=4.0437932
				18:[Contractsoort_Koppelcontract<1] yes=35,no=36,missing=36,gain=5.43003654,cover=82.7742767
					35:[DAEB=1 niet-DAEB=2<2] yes=65,no=66,missing=66,gain=5.04673433,cover=72.7610092
						65:[Leegwaarde<68000] yes=121,no=122,missing=122,gain=9.02930737,cover=39.1810799
							121:leaf=0.0079432372,cover=27.5397243
							122:leaf=-0.00233998825,cover=11.6413536
						66:[Leegwaarde<12500] yes=123,no=124,missing=124,gain=13.0092516,cover=33.5799294
							123:leaf=0.00296465517,cover=26.4437485
							124:leaf=-0.0114337755,cover=7.13618135
					36:[Leegwaarde<12500] yes=67,no=68,missing=68,gain=1.50294304,cover=10.0132675
						67:leaf=0.0127186673,cover=6.60387039
						68:leaf=0.00336233363,cover=3.40939665
		4:[WOZ waarde (WWS)<134000] yes=9,no=10,missing=10,gain=54.87146,cover=2241.15405
			9:[age_bucket_numeric<26] yes=19,no=20,missing=20,gain=35.7877045,cover=1636.23352
				19:[Huurdersomloopsnelheid<0.0599999987] yes=37,no=38,missing=38,gain=35.4743042,cover=1396.32898
					37:[Verhuurbaar vloeroppervlakte<94.4000015] yes=69,no=70,missing=70,gain=17.2582703,cover=1227.60291
						69:[Gemeente_encoded<11] yes=125,no=126,missing=126,gain=7.86794662,cover=979.584229
							125:leaf=-0.00330022629,cover=33.6680984
							126:leaf=0.00155604212,cover=945.916138
						70:[Huurdersomloopsnelheid<0.0281690136] yes=127,no=128,missing=128,gain=14.0752563,cover=248.018692
							127:leaf=0.00549756875,cover=200.123291
							128:leaf=-0.000524154399,cover=47.8954048
					38:[Leegwaarde<127000] yes=71,no=72,missing=72,gain=22.0459442,cover=168.726028
						71:[Totaal overige ruimtes<4.80000019] yes=129,no=130,missing=130,gain=9.36686325,cover=134.272461
							129:leaf=-0.0103991413,cover=23.1585388
							130:leaf=-0.00345365913,cover=111.113922
						72:[Verhuurbaar vloeroppervlakte<102.5] yes=131,no=132,missing=132,gain=9.26551628,cover=34.4535713
							131:leaf=0.00621650554,cover=29.8217735
							132:leaf=-0.0078586787,cover=4.63179922
				20:[EP2_waarde<199.470001] yes=39,no=40,missing=40,gain=7.28110504,cover=239.904526
					39:[Leegwaarde<130000] yes=73,no=74,missing=74,gain=6.49198151,cover=205.587341
						73:[Totaal overige ruimtes<4.80000019] yes=133,no=134,missing=134,gain=4.04610443,cover=159.122696
							133:leaf=0.00453838427,cover=45.1578026
							134:leaf=0.00826224219,cover=113.964905
						74:[VABI_finished_year<2023] yes=135,no=136,missing=136,gain=6.43056107,cover=46.4646416
							135:leaf=0.00457969075,cover=38.5910492
							136:leaf=-0.00489925593,cover=7.87359047
					40:[2e Slaapkamer<5.57999992] yes=75,no=76,missing=76,gain=15.7952528,cover=34.317173
						75:[Gemeente_encoded<84] yes=137,no=138,missing=138,gain=8.34313679,cover=10.0542669
							137:leaf=0.00181274943,cover=4.26656246
							138:leaf=-0.0156512205,cover=5.78770399
						76:[Huurdersomloopsnelheid<0.0377358496] yes=139,no=140,missing=140,gain=4.79070234,cover=24.262907
							139:leaf=0.00782663375,cover=19.0651131
							140:leaf=-0.00254284753,cover=5.19779444
			10:[Gebruiksoppervlak<80.4300003] yes=21,no=22,missing=22,gain=17.1805725,cover=604.920654
				21:[Gebruiksoppervlak<66.8199997] yes=41,no=42,missing=42,gain=23.6230316,cover=172.0168
					41:[Bergruimte/schuur 2<4.5] yes=77,no=78,missing=78,gain=20.7528648,cover=35.402401
						77:[Leegwaarde<133000] yes=141,no=142,missing=142,gain=13.3025541,cover=28.9780464
							141:leaf=-0.00139056146,cover=16.4134769
							142:leaf=0.0119184153,cover=12.5645695
						78:leaf=-0.014093291,cover=6.42435455
					42:[age_bucket_numeric<11] yes=79,no=80,missing=80,gain=6.78578186,cover=136.614395
						79:[WOZ waarde (WWS)<163000] yes=143,no=144,missing=144,gain=4.41009235,cover=27.6090698
							143:leaf=0.00272873626,cover=20.4462547
							144:leaf=0.0116334315,cover=7.16281509
						80:[Huurdersomloopsnelheid<0.0204081628] yes=145,no=146,missing=146,gain=5.15605164,cover=109.005325
							145:leaf=0.00396358734,cover=10.2293806
							146:leaf=0.011929363,cover=98.7759476
				22:[Huurdersomloopsnelheid<0.0350877196] yes=43,no=44,missing=44,gain=19.0429688,cover=432.90387
					43:[Zolder<7.75] yes=81,no=82,missing=82,gain=13.0676651,cover=277.476959
						81:[Leegwaarde<138000] yes=147,no=148,missing=148,gain=6.98046875,cover=90.9789276
							147:leaf=0.00410620216,cover=22.9146538
							148:leaf=0.0107346438,cover=68.0642776
						82:[WOZ waarde (WWS)<146000] yes=149,no=150,missing=150,gain=9.46360397,cover=186.498016
							149:leaf=0.00702913851,cover=80.6516266
							150:leaf=0.00246016774,cover=105.84639
					44:[Leegwaarde<136000] yes=83,no=84,missing=84,gain=12.6378784,cover=155.426926
						83:[Gebruiksoppervlak<89.3199997] yes=151,no=152,missing=152,gain=2.93234444,cover=27.0813446
							151:leaf=-0.000627935457,cover=3.53742218
							152:leaf=0.0089416476,cover=23.5439224
						84:[Huurdersomloopsnelheid<0.0377358496] yes=153,no=154,missing=154,gain=11.8859215,cover=128.345581
							153:leaf=-0.00818164367,cover=13.6565475
							154:leaf=0.00137751177,cover=114.689034
	2:[Huurdersomloopsnelheid<0.357142866] yes=5,no=6,missing=6,gain=82.6325684,cover=876.430969
		5:[Leegwaarde<121000] yes=11,no=12,missing=12,gain=40.8040924,cover=713.655762
			11:[Totaal overige ruimtes<7.71000004] yes=23,no=24,missing=24,gain=24.9989166,cover=291.880096
				23:[Postcode_cijfers_ 6129 <1] yes=45,no=46,missing=46,gain=20.1038818,cover=248.532089
					45:[Verhuurbaar vloeroppervlakte<65.2399979] yes=85,no=86,missing=86,gain=19.320076,cover=237.038101
						85:[WOZ waarde (WWS)<40480] yes=155,no=156,missing=156,gain=15.6147766,cover=202.9664
							155:leaf=-0.00521551492,cover=99.6356125
							156:leaf=-0.0108515518,cover=103.330788
						86:[Gebruiksoppervlak<76] yes=157,no=158,missing=158,gain=4.2229085,cover=34.0717049
							157:leaf=0.00243698037,cover=22.999609
							158:leaf=-0.00481398404,cover=11.0720959
					46:[age_bucket_numeric<22] yes=87,no=88,missing=88,gain=0.179196358,cover=11.4939861
						87:leaf=0.00776302628,cover=5.57604504
						88:leaf=0.00378647237,cover=5.91794109
				24:[Verwarmde overige ruimten<1] yes=47,no=48,missing=48,gain=9.77838135,cover=43.3480034
					47:[Gebruiksoppervlak<22.9500008] yes=89,no=90,missing=90,gain=0.116744995,cover=24.8827782
						89:leaf=-0.010192737,cover=3.71812105
						90:[Totaal overige ruimtes<9.14999962] yes=159,no=160,missing=160,gain=0.5467453,cover=21.1646576
							159:leaf=-0.0132174082,cover=7.57256126
							160:leaf=-0.0220787916,cover=13.5920963
					48:[Zolder<7.82999992] yes=91,no=92,missing=92,gain=4.35282421,cover=18.4652252
